{
  "layers": [
    {
      "name": "dense_8",
      "activation": "relu",
      "kernel": [
        [
          -3.532787799835205,
          -0.1180412545800209,
          0.020715394988656044,
          -0.3252553939819336,
          0.07135935127735138,
          -0.03758111968636513,
          -0.009541358798742294,
          -0.005906823091208935,
          -0.20031696557998657,
          -0.12511560320854187,
          0.5988761782646179,
          0.5925396084785461,
          -0.02839697152376175,
          -0.10348089039325714,
          -0.9458875060081482,
          0.0038943341933190823,
          0.09001468867063522,
          0.02982945926487446,
          0.031370632350444794,
          0.09631331264972687,
          2.339672088623047,
          -0.12300124019384384,
          0.08085448294878006,
          1.9595757722854614,
          -0.4289742112159729,
          -0.11692137271165848,
          -0.09219338744878769,
          -0.08030671626329422,
          1.6611679792404175,
          1.7801637649536133,
          -1.303802490234375,
          0.012271163985133171,
          -0.48412713408470154,
          -0.01629617065191269,
          0.2122686356306076,
          -0.011005347594618797,
          -2.4788784980773926,
          0.08698894083499908,
          -0.053057003766298294,
          0.119217149913311,
          -0.0452268049120903,
          0.11782893538475037,
          0.5146057605743408,
          -0.04989674687385559,
          0.3550722599029541,
          2.247007369995117,
          -0.08317407220602036,
          -0.05614497512578964,
          -0.1490800976753235,
          0.06404595077037811,
          0.6309288144111633,
          -0.026331547647714615,
          0.1700819879770279,
          -0.0019130684668198228,
          4.256701469421387,
          -1.3743234872817993,
          -1.13308846950531,
          0.784864604473114,
          -0.016246644780039787,
          -0.13441641628742218,
          0.005596557166427374,
          -0.15331719815731049,
          -0.11478949338197708,
          -0.7579067945480347,
          0.009283497929573059,
          1.626858115196228,
          -0.11240193247795105,
          0.10633117705583572,
          -1.3145517110824585,
          0.03723042458295822,
          0.40266749262809753,
          -0.057774774730205536,
          0.07974126935005188,
          -0.13746750354766846,
          -0.26344621181488037,
          -2.354613780975342,
          -0.03252668306231499,
          -0.061280518770217896,
          -0.0857880562543869,
          0.07584360241889954,
          2.580554485321045,
          0.5474077463150024,
          -0.13680948317050934,
          -0.06550569832324982,
          0.07995873689651489,
          -1.040515422821045,
          0.09122741222381592,
          -1.5952876806259155,
          -0.07896215468645096,
          -0.07842522114515305,
          0.0881785899400711,
          0.23710599541664124,
          0.07551223784685135,
          -0.0069429101422429085,
          0.11020153015851974,
          -2.6240696907043457,
          1.0049837827682495,
          -0.1112842857837677,
          -0.05574391409754753,
          0.11423442512750626,
          0.9153955578804016,
          0.11144325137138367,
          0.12793251872062683,
          -1.1677534580230713,
          2.305964469909668,
          0.05931660532951355,
          1.1795997619628906,
          -0.23226270079612732,
          -0.9180523157119751,
          -0.03168477490544319,
          -0.019854024052619934,
          0.9388210773468018,
          0.02083873748779297,
          0.09818887710571289,
          -0.10734335333108902,
          -0.13179710507392883,
          0.09374171495437622,
          0.9414067268371582,
          -0.05669838935136795,
          0.008579282090067863,
          -0.0579848438501358,
          -0.09603395313024521,
          -2.77258038520813,
          -0.40527307987213135,
          -0.10960514098405838,
          -0.19117936491966248,
          -0.06879530102014542,
          0.005193362478166819
        ],
        [
          0.9951022267341614,
          -0.053988873958587646,
          -0.5258881449699402,
          0.2520925998687744,
          -0.10940089821815491,
          -0.0641045793890953,
          -0.02288837544620037,
          -0.07882057130336761,
          0.03869674354791641,
          -0.06759686768054962,
          -0.3771219551563263,
          -0.009333088994026184,
          -0.1329653114080429,
          -0.04223816096782684,
          0.6467892527580261,
          -0.11905357241630554,
          0.00978732667863369,
          0.02218489721417427,
          0.039546117186546326,
          -0.0617421455681324,
          0.6235033273696899,
          -0.07670345157384872,
          0.10053476691246033,
          -0.14206431806087494,
          0.25532588362693787,
          0.10885269939899445,
          -0.0004835047002416104,
          -0.02938150428235531,
          0.20326094329357147,
          -0.18990525603294373,
          0.3700924217700958,
          -0.041925232857465744,
          -0.02701745368540287,
          -0.08528658002614975,
          -0.19875842332839966,
          0.0252901129424572,
          0.21399205923080444,
          -0.11199532449245453,
          0.02902664616703987,
          0.05067794770002365,
          -0.037201814353466034,
          -0.01975257508456707,
          -0.33986419439315796,
          0.07649759948253632,
          0.10264229774475098,
          -0.27022406458854675,
          0.0458274781703949,
          -0.13004964590072632,
          0.1703697293996811,
          -0.15579047799110413,
          -0.6257272958755493,
          -0.04581614211201668,
          0.38960540294647217,
          0.17745766043663025,
          -0.6266483664512634,
          0.6351147890090942,
          0.09196996688842773,
          -0.1266949623823166,
          0.1450567990541458,
          -0.010336496867239475,
          -0.026178453117609024,
          -0.1011134684085846,
          -0.13905325531959534,
          0.322567880153656,
          0.018755674362182617,
          -0.36124664545059204,
          -0.11027266830205917,
          -0.12176750600337982,
          0.8550472259521484,
          -0.13198070228099823,
          -0.1808927208185196,
          0.0758865550160408,
          -0.15209166705608368,
          0.014369182288646698,
          0.09525731950998306,
          0.8160843253135681,
          0.016642209142446518,
          -0.08067026734352112,
          0.3128301501274109,
          -0.16909940540790558,
          -0.5998907089233398,
          0.09251007437705994,
          0.12751725316047668,
          0.09971828013658524,
          -0.056319862604141235,
          0.25395530462265015,
          -0.1257004737854004,
          0.5395553708076477,
          0.03629210591316223,
          -0.11661612242460251,
          0.04252704977989197,
          0.6073978543281555,
          -0.021284660324454308,
          0.018425988033413887,
          0.06508823484182358,
          0.44196245074272156,
          -0.28175780177116394,
          -0.09878620505332947,
          -0.21222618222236633,
          -0.01823962666094303,
          -0.03282597288489342,
          0.010252788662910461,
          -0.086457759141922,
          0.7852362394332886,
          -0.5262330770492554,
          -0.022517511621117592,
          0.0029891091398894787,
          0.14146891236305237,
          0.14575842022895813,
          0.023836102336645126,
          -0.07212626188993454,
          -0.11709621548652649,
          -0.08723581582307816,
          0.061857108026742935,
          -0.12993259727954865,
          -0.052978694438934326,
          -0.2321479171514511,
          0.21380506455898285,
          -0.05742889642715454,
          -0.15996460616588593,
          -0.03766988590359688,
          -0.15318237245082855,
          0.6451107859611511,
          -0.20856443047523499,
          -0.04661073163151741,
          0.080329529941082,
          -0.13058140873908997,
          0.1542777568101883
        ],
        [
          -0.25884953141212463,
          0.03047005459666252,
          0.34155046939849854,
          0.564386248588562,
          -0.11411941796541214,
          0.03804090619087219,
          -0.03361181914806366,
          -0.047093089669942856,
          -0.008515437133610249,
          0.09364674240350723,
          0.25519850850105286,
          -0.719632089138031,
          0.1961890608072281,
          -0.05453271046280861,
          -0.7284609079360962,
          -0.12341609597206116,
          0.16673927009105682,
          -0.2514284551143646,
          -0.02002091519534588,
          -0.40638595819473267,
          0.08182848244905472,
          -0.14213581383228302,
          0.09948720037937164,
          -0.8970192074775696,
          0.1914561241865158,
          -0.10252134501934052,
          0.02757466956973076,
          -0.0015949851367622614,
          -0.1688876897096634,
          -0.21514172852039337,
          0.45799633860588074,
          -0.0008292810525745153,
          0.27226346731185913,
          -0.04873979836702347,
          0.10466378927230835,
          -0.0033858129754662514,
          0.4481411278247833,
          0.08926030248403549,
          0.5304240584373474,
          -0.12431895732879639,
          0.25254637002944946,
          -0.10987914353609085,
          -0.8220623731613159,
          -0.12488086521625519,
          -0.7287060022354126,
          0.2275407761335373,
          -0.6996625065803528,
          0.12854363024234772,
          0.07645847648382187,
          0.02227484993636608,
          -0.06203491613268852,
          0.1888340264558792,
          -0.04085918888449669,
          -0.6900127530097961,
          0.27294787764549255,
          -0.12603385746479034,
          -0.34021756052970886,
          0.6383200883865356,
          -0.20648404955863953,
          -0.11376078426837921,
          -0.09855133295059204,
          0.04968112334609032,
          -0.038214534521102905,
          0.5984932780265808,
          -0.05416152626276016,
          0.14969612658023834,
          0.6319238543510437,
          -0.03753716126084328,
          0.6958874464035034,
          0.08290320634841919,
          -0.5675827860832214,
          0.014426583424210548,
          0.49573814868927,
          -0.013591124676167965,
          0.045943837612867355,
          0.07038392871618271,
          -0.08305969089269638,
          -0.06617332994937897,
          -0.1633121818304062,
          -0.06602469086647034,
          0.21268485486507416,
          -0.000785212847404182,
          -0.04853220283985138,
          -0.10745367407798767,
          0.03360798954963684,
          -0.02133871428668499,
          -0.11676905304193497,
          -0.6068506836891174,
          -0.0801953375339508,
          0.09257370978593826,
          -0.06507492810487747,
          -0.01717383600771427,
          -0.010212266817688942,
          0.01155672688037157,
          0.18220700323581696,
          0.9177097678184509,
          0.9652555584907532,
          0.027290910482406616,
          0.29729658365249634,
          -0.07002264261245728,
          0.22008568048477173,
          0.00955671165138483,
          0.08243562281131744,
          -0.6901037096977234,
          -1.4261293411254883,
          -0.04701727256178856,
          -0.34934040904045105,
          0.33614277839660645,
          -0.20250317454338074,
          -0.028298482298851013,
          -0.06330106407403946,
          -0.536266565322876,
          -0.11854192614555359,
          -0.03112724982202053,
          -0.15004214644432068,
          -0.04356926679611206,
          -0.0506601482629776,
          0.3144840598106384,
          -0.001142769237048924,
          -0.1940697282552719,
          -0.017749913036823273,
          -0.016662180423736572,
          -0.7262862920761108,
          0.719412624835968,
          -0.086501844227314,
          0.041048314422369,
          -0.07701634615659714,
          -0.13504207134246826
        ],
        [
          -0.2821885049343109,
          -0.08001578599214554,
          0.054598886519670486,
          0.4222561717033386,
          -0.021908851340413094,
          0.015640581026673317,
          0.02709953300654888,
          0.07799624651670456,
          0.021061785519123077,
          -0.11404205858707428,
          0.137964129447937,
          -1.74488365650177,
          0.19531941413879395,
          -0.014407767914235592,
          -0.06553185731172562,
          -0.13676287233829498,
          0.09383080154657364,
          -0.06044912710785866,
          0.09861277788877487,
          -0.2551722228527069,
          -0.263381689786911,
          -0.12731429934501648,
          0.02473190426826477,
          -1.7455374002456665,
          0.3308620750904083,
          -0.05384751409292221,
          0.03502222150564194,
          -0.0346682034432888,
          -0.5915101766586304,
          -0.6377303600311279,
          -0.04132503643631935,
          0.046004511415958405,
          0.6805493235588074,
          0.0327918604016304,
          0.2794157564640045,
          -0.13885974884033203,
          1.8483202457427979,
          0.10637722909450531,
          0.3502316176891327,
          -0.1322251409292221,
          0.36641135811805725,
          0.03358837962150574,
          -0.5414230823516846,
          -0.10973400622606277,
          -2.158108711242676,
          0.0239873006939888,
          -0.3238734304904938,
          -0.023842670023441315,
          0.043431349098682404,
          -0.00247018039226532,
          -0.6812844276428223,
          0.25781556963920593,
          0.5713169574737549,
          -2.0294554233551025,
          -0.6570170521736145,
          0.8111177086830139,
          0.4997009336948395,
          0.7894349694252014,
          -0.07603369653224945,
          -0.10499956458806992,
          -0.05372423306107521,
          -0.1491878181695938,
          -0.12470034509897232,
          0.48363032937049866,
          -0.06533560156822205,
          -0.7165166139602661,
          0.056033965200185776,
          0.27147582173347473,
          -0.34285929799079895,
          0.059610046446323395,
          -0.5443337559700012,
          -0.08205899596214294,
          -0.21957585215568542,
          0.10303831845521927,
          0.5083044171333313,
          -0.11530692130327225,
          -0.08698945492506027,
          0.04880925267934799,
          -0.16400854289531708,
          -0.09735402464866638,
          0.5769569873809814,
          -1.3585865497589111,
          0.07377568632364273,
          -0.019091514870524406,
          -0.045431602746248245,
          -0.5147161483764648,
          0.0225810706615448,
          -1.5160566568374634,
          -0.0845266580581665,
          -0.05887848883867264,
          -0.1245996356010437,
          0.8503631353378296,
          -0.06598672270774841,
          0.057883959263563156,
          -0.0943078100681305,
          1.080610990524292,
          0.7927178144454956,
          0.1112470030784607,
          0.7439568638801575,
          -0.14097990095615387,
          0.15551801025867462,
          0.03373439237475395,
          -0.0034921818878501654,
          -0.2262142151594162,
          -0.8145555257797241,
          0.11540193855762482,
          -0.3399754762649536,
          0.00355299049988389,
          -0.40657466650009155,
          -0.09473565220832825,
          -0.16168271005153656,
          -1.103863000869751,
          -0.1341126561164856,
          0.06551384180784225,
          0.022321969270706177,
          -0.16468457877635956,
          -0.11745163798332214,
          0.14234739542007446,
          -0.029138023033738136,
          0.03028525970876217,
          0.07160055637359619,
          0.07467231154441833,
          -0.7009601593017578,
          0.8313559889793396,
          0.14011870324611664,
          0.23107703030109406,
          -0.0821545422077179,
          -0.01669223979115486
        ],
        [
          -0.03508070111274719,
          0.13123083114624023,
          -0.4571334421634674,
          -0.4475092589855194,
          -0.07111627608537674,
          -0.0816546157002449,
          -0.02956642024219036,
          -0.028106916695833206,
          -0.017046071588993073,
          0.05198758468031883,
          -0.28351354598999023,
          1.392454743385315,
          -0.030874595046043396,
          -0.2040463536977768,
          -0.6297039985656738,
          -0.08949530869722366,
          0.008832902647554874,
          0.2576068639755249,
          0.029670996591448784,
          0.07936034351587296,
          0.3731847405433655,
          0.11039779335260391,
          0.010887368582189083,
          1.394887924194336,
          -0.45636531710624695,
          -0.13005152344703674,
          -0.1367456167936325,
          -0.06267143040895462,
          0.3737453520298004,
          0.70362788438797,
          -0.5546708106994629,
          0.00648429524153471,
          -0.20618407428264618,
          -0.01209484227001667,
          -0.13488176465034485,
          -0.024927785620093346,
          -0.7652998566627502,
          -0.08071810752153397,
          -0.3260043263435364,
          0.06412642449140549,
          -0.37418219447135925,
          -0.014849876053631306,
          0.6084620356559753,
          -0.08525244891643524,
          1.41411554813385,
          0.2683144807815552,
          0.2752787172794342,
          -0.12735559046268463,
          -0.08413422107696533,
          0.0016197541262954473,
          0.5380942821502686,
          -0.576770544052124,
          -0.061369672417640686,
          0.7968119382858276,
          -0.24071669578552246,
          -0.6281049251556396,
          0.13744084537029266,
          -0.8253549933433533,
          0.12037558853626251,
          -0.14165323972702026,
          -0.05397457256913185,
          0.08147913962602615,
          0.0013356540584936738,
          -0.751160740852356,
          -0.008458957076072693,
          0.2472066730260849,
          -0.2537417709827423,
          -0.1168370395898819,
          -0.6317499279975891,
          0.08881302177906036,
          0.40464022755622864,
          0.07894616574048996,
          -0.05468474328517914,
          0.036277733743190765,
          -0.17339077591896057,
          -0.5326721668243408,
          0.07410331070423126,
          -0.0776205062866211,
          -0.04304737597703934,
          -0.1224646270275116,
          0.5747137069702148,
          0.46713948249816895,
          -0.1788642257452011,
          0.09559725970029831,
          -0.08629264682531357,
          0.07992443442344666,
          -0.1066603809595108,
          0.8703354597091675,
          -0.014504065737128258,
          0.004653432872146368,
          -0.2671864330768585,
          -0.21988631784915924,
          -0.05078769847750664,
          -0.12464030832052231,
          -0.017880694940686226,
          -1.0322405099868774,
          -0.5257930159568787,
          -0.07530737668275833,
          -0.396136075258255,
          0.01643986627459526,
          -0.27764901518821716,
          -0.0023071093019098043,
          0.036198168992996216,
          0.024139797315001488,
          1.3647854328155518,
          -0.02007593773305416,
          0.3203199803829193,
          -0.22435815632343292,
          0.389969140291214,
          -0.11069661378860474,
          -0.15685783326625824,
          1.159595251083374,
          0.026546932756900787,
          0.10242029279470444,
          -0.07613669335842133,
          -0.08955635875463486,
          -0.003390990197658539,
          -0.32922959327697754,
          -0.012431124225258827,
          -0.03709337115287781,
          -0.07067907601594925,
          -0.05999724939465523,
          0.012221457436680794,
          -0.7748355865478516,
          -0.07835517823696136,
          -0.04402198642492294,
          0.034958161413669586,
          -0.04089150205254555
        ],
        [
          -1.5315057039260864,
          0.10221853107213974,
          0.3285825252532959,
          -0.15599025785923004,
          -0.1155608743429184,
          -0.0683295801281929,
          -0.010282671079039574,
          0.08592169731855392,
          -0.19230444729328156,
          -0.10756181925535202,
          0.9955552220344543,
          0.3884706199169159,
          0.0064653088338673115,
          -0.1420339047908783,
          -0.5089011192321777,
          0.07763279229402542,
          0.16727641224861145,
          -0.02447090484201908,
          -0.10321174561977386,
          -0.0014937851810827851,
          1.4558544158935547,
          0.06750230491161346,
          -0.09976065158843994,
          0.14814357459545135,
          -0.13643935322761536,
          -0.09996725618839264,
          0.08738471567630768,
          -0.08032965660095215,
          0.5556685924530029,
          1.5125929117202759,
          -0.4846089780330658,
          0.09771760553121567,
          -0.4798392057418823,
          -0.04812850430607796,
          -0.12146943807601929,
          0.00023568443430121988,
          -0.5581046342849731,
          -0.09493301063776016,
          0.17710086703300476,
          0.08954846113920212,
          -0.0064675649628043175,
          0.05012378841638565,
          0.23555715382099152,
          -0.048694632947444916,
          0.27797558903694153,
          1.0342251062393188,
          -0.07801562547683716,
          0.002682015299797058,
          -0.15414713323116302,
          0.03791915252804756,
          0.21498459577560425,
          0.23607522249221802,
          -0.44203174114227295,
          0.13929052650928497,
          1.6416722536087036,
          -0.33792418241500854,
          -0.3100169003009796,
          -0.5299098491668701,
          0.12096597999334335,
          0.07042141258716583,
          0.01371336355805397,
          -0.0073966835625469685,
          -0.08602389693260193,
          0.16742728650569916,
          -0.00727902352809906,
          0.9308072924613953,
          0.06283329427242279,
          -0.01256957184523344,
          -0.70147305727005,
          -0.028976278379559517,
          0.15604563057422638,
          -0.09260910004377365,
          0.18839101493358612,
          -0.010008160024881363,
          -0.13450638949871063,
          -1.1569691896438599,
          0.08832348883152008,
          -0.11305634677410126,
          -0.13329435884952545,
          -0.00886311661452055,
          1.3784476518630981,
          -0.018012551590800285,
          -0.2027280032634735,
          0.09669667482376099,
          -0.008848361670970917,
          0.2802695631980896,
          -0.031612880527973175,
          -0.6447820067405701,
          0.08024697005748749,
          0.019058456644415855,
          -0.009748509153723717,
          0.5204942226409912,
          0.03665609285235405,
          0.07702389359474182,
          -0.04082106426358223,
          -0.9475759267807007,
          1.0091427564620972,
          0.08167172968387604,
          0.09585834294557571,
          0.07430731505155563,
          0.08985459059476852,
          -0.11097594350576401,
          -0.08183848112821579,
          0.35923928022384644,
          1.2031136751174927,
          -0.1413523405790329,
          1.3219701051712036,
          -0.7732120752334595,
          -0.9548012018203735,
          -0.05982466787099838,
          -0.05108467489480972,
          0.5503542423248291,
          -0.11022744327783585,
          -0.08782909065485,
          -0.08353371918201447,
          0.026475606486201286,
          -0.03631261736154556,
          0.3240925669670105,
          -0.037349119782447815,
          -0.17841415107250214,
          -0.004490977618843317,
          -0.12499155104160309,
          -0.626617431640625,
          -0.17180432379245758,
          -0.019861092790961266,
          -0.1416121870279312,
          0.0005503508727997541,
          -0.09911725670099258
        ],
        [
          -0.5731741786003113,
          0.008791149593889713,
          -0.42246100306510925,
          -0.983978807926178,
          0.10727495700120926,
          -0.07408332824707031,
          -0.11295043677091599,
          -0.07866158336400986,
          -0.5521048307418823,
          0.06728343665599823,
          -0.3337385058403015,
          0.4159238040447235,
          0.12667956948280334,
          -0.03904304280877113,
          0.7237064242362976,
          -0.1343856155872345,
          0.0346514917910099,
          0.10485896468162537,
          -0.10616686195135117,
          0.06721460074186325,
          -0.01854056678712368,
          0.11256489902734756,
          0.009590343572199345,
          -0.2834148705005646,
          0.19244079291820526,
          0.10871423780918121,
          -0.18150630593299866,
          0.034910645335912704,
          0.086185023188591,
          -0.7707802653312683,
          0.06218774989247322,
          0.034554749727249146,
          -0.8754520416259766,
          0.05165892839431763,
          0.08895102888345718,
          -0.1350988745689392,
          1.2172226905822754,
          0.08782912790775299,
          0.07789483666419983,
          0.046648986637592316,
          -0.16340002417564392,
          0.051651276648044586,
          1.6321618556976318,
          0.010370880365371704,
          -0.11946567893028259,
          -0.05318685993552208,
          -0.11042236536741257,
          0.08221310377120972,
          -0.017881469801068306,
          -0.10368791967630386,
          0.5148390531539917,
          -0.025055568665266037,
          0.04536394402384758,
          -0.5896012783050537,
          -1.032729148864746,
          1.8226237297058105,
          1.3605602979660034,
          1.2070348262786865,
          -0.058383047580718994,
          -0.09803994745016098,
          -0.09543610364198685,
          0.0824626237154007,
          -0.10287424921989441,
          -0.24085304141044617,
          -0.07881984859704971,
          0.803613007068634,
          0.11403056234121323,
          0.05479118600487709,
          0.5436731576919556,
          0.053198400884866714,
          0.0541963055729866,
          -0.0614505335688591,
          -0.8890548348426819,
          -0.16045618057250977,
          0.028861504048109055,
          0.9266538619995117,
          -0.04611806198954582,
          -0.03148263320326805,
          0.9364916682243347,
          -0.16325743496418,
          0.6479546427726746,
          0.5738289952278137,
          -0.13114838302135468,
          -0.06122725456953049,
          0.038150474429130554,
          0.8527528047561646,
          -0.024366863071918488,
          0.2660449743270874,
          0.0163697712123394,
          0.08740267157554626,
          -0.03717721998691559,
          1.4808826446533203,
          0.10999564826488495,
          -0.0404343418776989,
          -0.03927265852689743,
          0.4654596745967865,
          -1.0930527448654175,
          0.037741005420684814,
          -0.4638920724391937,
          0.07213351130485535,
          -0.7510200142860413,
          -0.13222736120224,
          0.12679781019687653,
          -0.2690340280532837,
          -0.3059404194355011,
          -0.053984977304935455,
          0.9918541312217712,
          -0.49277031421661377,
          -0.7892433404922485,
          0.11389567703008652,
          -0.020396310836076736,
          0.29641544818878174,
          -0.015059667639434338,
          -0.027691248804330826,
          -0.09763070195913315,
          0.0055487630888819695,
          0.2110568732023239,
          -0.7845397591590881,
          -0.07656199485063553,
          0.03883378207683563,
          0.06042158231139183,
          -0.07307575643062592,
          0.11158488690853119,
          0.3001149892807007,
          -0.14884693920612335,
          -0.05612894520163536,
          -0.12011036276817322,
          0.04270564764738083
        ],
        [
          0.6374116539955139,
          -0.151250422000885,
          0.21615327894687653,
          -0.5128852725028992,
          0.05133696272969246,
          -0.15532369911670685,
          0.12344404309988022,
          -0.01457743626087904,
          0.305381178855896,
          0.0526774525642395,
          -0.9902837872505188,
          0.5825446844100952,
          0.040255796164274216,
          0.13787317276000977,
          -0.0778931975364685,
          0.110022634267807,
          -0.22961892187595367,
          -0.1418858915567398,
          0.045767005532979965,
          -0.09189336746931076,
          -0.03912826627492905,
          0.05745326727628708,
          0.010907478630542755,
          0.13533258438110352,
          -0.10720714181661606,
          0.12855689227581024,
          -0.13918627798557281,
          -0.24761225283145905,
          0.43462586402893066,
          -2.058213710784912,
          -0.22589944303035736,
          -0.0282436553388834,
          0.3639237582683563,
          0.028330205008387566,
          -0.2861632704734802,
          -0.021551165729761124,
          1.0911929607391357,
          0.06069406867027283,
          0.1004825085401535,
          -0.08253518491983414,
          0.09317240864038467,
          -0.13510702550411224,
          0.4430144429206848,
          0.09299130737781525,
          -0.2915092408657074,
          -0.3370656669139862,
          0.13255076110363007,
          0.01662847399711609,
          -0.18462182581424713,
          -0.0965457633137703,
          -0.5820093750953674,
          -0.19167986512184143,
          0.5048753023147583,
          -0.7250227928161621,
          -0.31655967235565186,
          0.7396693825721741,
          1.2457207441329956,
          0.846865177154541,
          -0.1511783003807068,
          0.010229506529867649,
          -0.050886813551187515,
          -0.06410140544176102,
          0.10957442969083786,
          -0.6169092059135437,
          -0.06565538048744202,
          -0.35730618238449097,
          -0.06676173955202103,
          -0.26091352105140686,
          1.5755493640899658,
          -0.1132904440164566,
          -0.11635648459196091,
          0.061764106154441833,
          -1.9598814249038696,
          0.04655005410313606,
          0.22016240656375885,
          0.1680144965648651,
          0.0594015009701252,
          0.11440649628639221,
          0.38534143567085266,
          -0.12971748411655426,
          0.7600680589675903,
          0.6882116198539734,
          0.050778865814208984,
          0.002129073953256011,
          -0.1740945428609848,
          -0.4798755347728729,
          -0.04350884258747101,
          0.3657510280609131,
          -0.1041921079158783,
          -0.09175363183021545,
          0.001968884840607643,
          0.24275614321231842,
          0.1256726086139679,
          0.019164929166436195,
          -0.2531736493110657,
          0.0001779663871275261,
          -0.6123598217964172,
          -0.12655530869960785,
          -0.3479726016521454,
          -0.08911042660474777,
          0.14155536890029907,
          0.03304465115070343,
          -0.12417878955602646,
          -0.5549269318580627,
          0.18863041698932648,
          -0.06385933607816696,
          1.039429783821106,
          0.7263544797897339,
          0.32569605112075806,
          -0.007275821641087532,
          -0.08972545713186264,
          -0.30531761050224304,
          -0.14356955885887146,
          -0.06849662214517593,
          -0.007791254669427872,
          -0.13016818463802338,
          0.17975960671901703,
          -0.3115203082561493,
          -0.03579159826040268,
          -0.1540929526090622,
          0.0992523804306984,
          -0.07637114822864532,
          -0.6936777234077454,
          0.0692368820309639,
          0.049788698554039,
          -0.16451415419578552,
          0.013207532465457916,
          -0.21555566787719727
        ],
        [
          -0.13582254946231842,
          -0.12657365202903748,
          0.4762991666793823,
          1.002061367034912,
          0.03574890270829201,
          -0.18526552617549896,
          -0.11281333863735199,
          0.09960135817527771,
          -0.19007545709609985,
          0.12392333894968033,
          0.8903298377990723,
          -0.09259553998708725,
          0.11301810294389725,
          -0.15126720070838928,
          -0.6159331202507019,
          -0.04177199304103851,
          0.08156852424144745,
          -0.14829453825950623,
          0.08118461072444916,
          -0.15856201946735382,
          0.17046579718589783,
          -0.1071014255285263,
          -0.09735359996557236,
          0.2227270007133484,
          -0.09057176858186722,
          -0.015014991164207458,
          0.06550551950931549,
          0.12016715854406357,
          -0.20359355211257935,
          0.6293233633041382,
          0.05911516770720482,
          -0.14427827298641205,
          0.22668565809726715,
          0.1169525608420372,
          -0.0034072212874889374,
          0.08309794962406158,
          -0.2783833146095276,
          0.0901617482304573,
          -0.19519490003585815,
          -0.01893940567970276,
          -0.04886285960674286,
          -0.008988435380160809,
          -0.5853529572486877,
          -0.10440908372402191,
          0.4093140959739685,
          0.2672993838787079,
          -0.015118871815502644,
          0.1326599270105362,
          -0.11677636951208115,
          -0.08400858938694,
          -0.25786733627319336,
          -0.02232140116393566,
          -0.5615748167037964,
          0.3598063290119171,
          0.8454487323760986,
          -0.8014436364173889,
          -0.6659286022186279,
          0.09097890555858612,
          -0.1684090942144394,
          -0.015261461958289146,
          -0.06402565538883209,
          -0.014949102886021137,
          -0.11227941513061523,
          0.46256494522094727,
          -0.0590512752532959,
          -0.09038911014795303,
          0.15545012056827545,
          -0.29813292622566223,
          -0.014792107045650482,
          -0.051450829952955246,
          0.13580210506916046,
          -0.07888562232255936,
          0.8767682909965515,
          -0.15236210823059082,
          -0.15235108137130737,
          -0.6771145462989807,
          0.0425184890627861,
          -0.12136247009038925,
          -0.35468965768814087,
          0.020158840343356133,
          0.4012444317340851,
          -0.33097344636917114,
          -0.11117248982191086,
          -0.12030856311321259,
          -0.02409692481160164,
          -0.04757867753505707,
          0.08592548966407776,
          0.09441316872835159,
          0.030839061364531517,
          0.07853749394416809,
          0.14580312371253967,
          0.10598523914813995,
          0.0988311693072319,
          0.07177335023880005,
          0.09943719953298569,
          0.16403000056743622,
          0.598545253276825,
          -0.06904009729623795,
          0.33647674322128296,
          0.08460070937871933,
          0.2882761061191559,
          0.028796361759305,
          0.0012566973455250263,
          0.6865758299827576,
          0.17570331692695618,
          0.08991287648677826,
          -0.2571040689945221,
          0.24142704904079437,
          -1.137866497039795,
          -0.06610723584890366,
          -0.16227936744689941,
          -0.10187601298093796,
          -0.09951462596654892,
          -0.059498827904462814,
          -0.07761526852846146,
          -0.1024918407201767,
          -0.07706888020038605,
          0.8940041065216064,
          -0.0787334218621254,
          -0.06722218543291092,
          0.0009685723925940692,
          -0.031551044434309006,
          0.12441913038492203,
          -0.1006152480840683,
          0.01745777018368244,
          0.0488053523004055,
          -0.1555328667163849,
          -0.1167677789926529
        ],
        [
          0.6351603865623474,
          0.042273975908756256,
          -0.3700384199619293,
          -0.5779812932014465,
          -0.08829961717128754,
          0.032413750886917114,
          -0.11754163354635239,
          0.06671906262636185,
          0.08811109513044357,
          0.024550769478082657,
          -0.3700803816318512,
          1.0480554103851318,
          -0.13397371768951416,
          -0.034348729997873306,
          0.12983782589435577,
          -0.047986630350351334,
          -0.19998572766780853,
          -0.0052831037901341915,
          -0.13969723880290985,
          0.25607961416244507,
          -0.26278865337371826,
          -0.07861857861280441,
          -0.0633569210767746,
          1.173296570777893,
          -0.29898250102996826,
          0.021346911787986755,
          0.026578979566693306,
          0.22687625885009766,
          0.24371181428432465,
          -0.9807332754135132,
          -0.5940528512001038,
          0.05613499879837036,
          -0.081546351313591,
          -0.010993335396051407,
          -0.11830244958400726,
          0.027909381315112114,
          -0.45655104517936707,
          -0.05765015631914139,
          -0.4509012997150421,
          0.025466885417699814,
          -0.40405774116516113,
          0.11286419630050659,
          0.7328012585639954,
          0.08925212919712067,
          1.0342271327972412,
          0.06952083110809326,
          0.6970753073692322,
          0.09642139077186584,
          -0.13939818739891052,
          -0.0016227414598688483,
          0.21346865594387054,
          -0.4364451766014099,
          0.10638697445392609,
          0.7000834345817566,
          0.22762206196784973,
          -0.5705333948135376,
          0.4978882074356079,
          0.34482908248901367,
          0.113742895424366,
          -0.11186651140451431,
          0.08037398755550385,
          -0.05922078713774681,
          0.04340799152851105,
          -0.6918272376060486,
          -0.08481074124574661,
          0.06132468208670616,
          -0.46816760301589966,
          -0.32950538396835327,
          0.5463693737983704,
          -0.061644699424505234,
          0.6888196468353271,
          -0.1350865662097931,
          -0.41749507188796997,
          -0.05422169342637062,
          -0.06876422464847565,
          0.24241697788238525,
          -0.08143085986375809,
          -0.03338463231921196,
          0.27308711409568787,
          -0.12447430193424225,
          0.0164659321308136,
          0.37301868200302124,
          -0.10698853433132172,
          -0.009663902223110199,
          -0.0018735290504992008,
          -0.28554412722587585,
          -0.05441433936357498,
          0.878104031085968,
          -0.12007129192352295,
          0.1098785400390625,
          -0.14083382487297058,
          -0.375710666179657,
          0.07939137518405914,
          0.04997963830828667,
          -0.2598062753677368,
          -0.5264003872871399,
          -0.9773858189582825,
          0.09656906127929688,
          -0.3880905508995056,
          -0.029317403212189674,
          -0.2892850339412689,
          0.014117499813437462,
          0.08808153867721558,
          0.1506129801273346,
          1.1358004808425903,
          0.08634941279888153,
          0.4390104115009308,
          0.07023824006319046,
          0.005147294607013464,
          -0.056821223348379135,
          0.13291898369789124,
          0.6490052938461304,
          -0.12349233776330948,
          0.0036992921959608793,
          -0.021777326241135597,
          -0.0803050845861435,
          0.07139964401721954,
          -0.26094692945480347,
          0.0920528918504715,
          0.0899212658405304,
          -0.14386072754859924,
          0.032370347529649734,
          0.07138793915510178,
          -0.5662866234779358,
          0.08709153532981873,
          -0.27574026584625244,
          -0.12380964308977127,
          0.09076067805290222
        ],
        [
          1.152890920639038,
          -0.10110021382570267,
          0.24725058674812317,
          0.6307076811790466,
          0.045826394110918045,
          0.12173882871866226,
          -0.12287622690200806,
          -0.08694734424352646,
          0.031395137310028076,
          -0.05600152537226677,
          0.6073746681213379,
          -0.7903990149497986,
          0.23490533232688904,
          0.0019399092998355627,
          0.18666842579841614,
          0.08930317312479019,
          -0.04345498979091644,
          -0.231908917427063,
          -0.07534554600715637,
          -0.21983402967453003,
          -1.1588855981826782,
          0.026413051411509514,
          0.019880063831806183,
          -0.5083667635917664,
          0.2533402442932129,
          0.06682884693145752,
          0.05536775663495064,
          -0.08333903551101685,
          -1.2110767364501953,
          1.623970866203308,
          1.114097237586975,
          0.09750782698392868,
          0.537890613079071,
          -0.133030965924263,
          4.4650412746705115e-05,
          0.035455308854579926,
          -0.2870754897594452,
          -0.0333629734814167,
          0.11978056281805038,
          -0.12713631987571716,
          0.21400277316570282,
          -0.1404266506433487,
          -0.3872819244861603,
          0.030715450644493103,
          0.09089899063110352,
          -0.8317226767539978,
          -0.035394247621297836,
          -0.12836158275604248,
          0.021117081865668297,
          -0.14478005468845367,
          0.487227201461792,
          0.223321333527565,
          -0.30801743268966675,
          0.801155686378479,
          -0.3630833327770233,
          -0.4850267469882965,
          -0.61057049036026,
          -1.8552693128585815,
          -0.18875382840633392,
          -0.017938587814569473,
          0.11646692454814911,
          -0.09359019249677658,
          0.05677660554647446,
          0.7839410901069641,
          -0.021512463688850403,
          -0.7302882075309753,
          0.07585076242685318,
          -0.015786292031407356,
          -0.49911797046661377,
          -0.09959591180086136,
          -0.24478626251220703,
          -0.050795018672943115,
          1.0682796239852905,
          -0.2054767608642578,
          -0.13777871429920197,
          0.15266862511634827,
          0.02116256393492222,
          0.11341593414545059,
          -0.3760972321033478,
          0.12890100479125977,
          -1.4750685691833496,
          -0.726638913154602,
          0.20768706500530243,
          0.10094499588012695,
          -0.15455842018127441,
          0.027234207838773727,
          -0.11008064448833466,
          0.2036537081003189,
          0.056804005056619644,
          -0.05322013050317764,
          -0.13661159574985504,
          -1.480698585510254,
          0.08182387053966522,
          -0.024122701957821846,
          0.103364497423172,
          1.0896247625350952,
          0.6784672737121582,
          0.07079911231994629,
          0.45947572588920593,
          -0.009263752028346062,
          -0.2462591677904129,
          0.11724195629358292,
          0.04253042861819267,
          0.4848730266094208,
          -1.0424509048461914,
          -0.07453116029500961,
          -2.2896575927734375,
          -0.600468635559082,
          1.728823184967041,
          -0.11797585338354111,
          -0.017150066792964935,
          -0.09504203498363495,
          -0.09141125530004501,
          -0.09730544686317444,
          0.07255323976278305,
          -0.1294987052679062,
          -0.03407555818557739,
          0.2185949832201004,
          -0.14830590784549713,
          -0.10279513895511627,
          -0.13260552287101746,
          0.0680040493607521,
          1.5373167991638184,
          0.44655007123947144,
          0.08567235618829727,
          -0.011092670261859894,
          -0.09244250506162643,
          -0.005779491271823645
        ],
        [
          0.8089296221733093,
          -0.13619579374790192,
          -0.3106711208820343,
          0.28675517439842224,
          -0.10584335029125214,
          0.13284392654895782,
          -0.11207076162099838,
          0.013200306333601475,
          0.3623986542224884,
          -0.12261059135198593,
          -0.17871566116809845,
          0.12352363765239716,
          -0.14069600403308868,
          -0.10686058551073074,
          -0.09557053446769714,
          0.11525963991880417,
          -0.11624263226985931,
          0.13221874833106995,
          -0.07884353399276733,
          -0.05749544873833656,
          -0.9291960000991821,
          0.10299484431743622,
          -0.010293807834386826,
          0.16924363374710083,
          -0.13064347207546234,
          -0.013620570302009583,
          -0.17822015285491943,
          -0.16122183203697205,
          -0.5702239274978638,
          0.4231812357902527,
          1.1724414825439453,
          -0.04736778512597084,
          -0.04855899512767792,
          0.11678561568260193,
          -0.26809561252593994,
          0.0031134176533669233,
          0.055821143090724945,
          0.06337539106607437,
          -0.3160335421562195,
          0.0990101769566536,
          0.06235348805785179,
          -0.12415463477373123,
          -0.4314418137073517,
          -0.05107425898313522,
          0.33279868960380554,
          -0.10380299389362335,
          0.34515419602394104,
          -0.014899782836437225,
          0.06604301184415817,
          -0.016331033781170845,
          0.6556283235549927,
          -0.15409798920154572,
          0.19686469435691833,
          0.769061267375946,
          -1.0626991987228394,
          -0.27570560574531555,
          0.0020443580579012632,
          -1.502443552017212,
          -0.0057066986337304115,
          -0.03372399881482124,
          0.005543565843254328,
          0.006134665571153164,
          0.06243976578116417,
          0.249650776386261,
          0.0712864100933075,
          -0.30410364270210266,
          -0.31477421522140503,
          0.2870752215385437,
          0.44444212317466736,
          -0.015571418218314648,
          0.21954767405986786,
          0.070191890001297,
          0.6287670731544495,
          -0.0022520991042256355,
          -0.1623401790857315,
          0.2614939212799072,
          0.002504664706066251,
          0.04887055605649948,
          0.3175331652164459,
          0.026698393747210503,
          -1.4019560813903809,
          -0.29356181621551514,
          -0.06353422999382019,
          0.017775947228074074,
          0.013325338251888752,
          0.5190714597702026,
          0.10965754091739655,
          0.7323319911956787,
          0.11647821962833405,
          -0.01546967402100563,
          -0.1355672925710678,
          -0.6368394494056702,
          -0.1253625601530075,
          -0.18740998208522797,
          -0.09456569701433182,
          0.2919006943702698,
          -0.31441962718963623,
          -0.03798370808362961,
          0.3567368984222412,
          0.019878102466464043,
          -0.3017041087150574,
          -0.01890251226723194,
          0.1011711061000824,
          1.035670518875122,
          -0.2619371712207794,
          -0.0397120900452137,
          -0.6793199777603149,
          -0.05262894928455353,
          1.3391002416610718,
          -0.10976079106330872,
          -0.021693743765354156,
          0.45205971598625183,
          -0.141378253698349,
          0.00884129200130701,
          -0.07396762073040009,
          -0.0010401631006971002,
          -0.05003995820879936,
          -0.08149795979261398,
          -0.16306354105472565,
          0.029209502041339874,
          0.058837682008743286,
          -0.04620176926255226,
          1.498945713043213,
          -0.5980120897293091,
          -0.10660634934902191,
          0.06381400674581528,
          0.013985773548483849,
          -0.11099294573068619
        ],
        [
          0.7199001312255859,
          0.06287501007318497,
          0.5870200991630554,
          0.6346401572227478,
          -0.13790589570999146,
          -0.04117265343666077,
          -0.04660406708717346,
          -0.08923729509115219,
          0.4870012700557709,
          0.08139147609472275,
          -0.33501136302948,
          -0.36928102374076843,
          0.12679658830165863,
          -0.008297326974570751,
          1.3972283601760864,
          -0.089670330286026,
          -0.29246586561203003,
          -0.004364190623164177,
          -0.09612102806568146,
          0.0034161696676164865,
          0.12128602713346481,
          0.08801103383302689,
          -0.1283756047487259,
          -0.13434532284736633,
          0.00506100058555603,
          -0.09860284626483917,
          0.0034861790481954813,
          0.044235676527023315,
          -0.261153906583786,
          -0.18024592101573944,
          -0.0019055787706747651,
          -0.021713202819228172,
          0.4496675729751587,
          0.06741565465927124,
          -0.07713078707456589,
          0.12987744808197021,
          0.001948232646100223,
          -0.13645504415035248,
          0.23722968995571136,
          -0.06968683004379272,
          0.06962527334690094,
          -0.0827263593673706,
          -0.6636137366294861,
          0.08175291121006012,
          -0.5775420665740967,
          -0.9659585952758789,
          0.07431550323963165,
          0.04426351189613342,
          0.25416746735572815,
          -0.09390462934970856,
          -0.8518425822257996,
          -0.14828339219093323,
          0.11736954748630524,
          -0.2758585214614868,
          -0.5212917923927307,
          0.47914043068885803,
          0.004157160874456167,
          0.22474290430545807,
          0.012548556551337242,
          -0.10563987493515015,
          -0.03303420916199684,
          0.065013088285923,
          -0.06938549876213074,
          0.36491888761520386,
          -0.05061694234609604,
          -0.7763828039169312,
          -0.020211298018693924,
          -0.06600727885961533,
          -0.3542283773422241,
          -0.06028815731406212,
          -0.35926583409309387,
          0.08112223446369171,
          0.01995416171848774,
          0.08796101063489914,
          -0.011839830316603184,
          1.7438833713531494,
          -0.018695103004574776,
          -0.13278891146183014,
          -0.025259612128138542,
          -0.04176785796880722,
          -1.2157009840011597,
          -0.18834559619426727,
          0.042694441974163055,
          -0.05937571823596954,
          -0.05827438831329346,
          -0.17143133282661438,
          0.06276673078536987,
          0.05687717720866203,
          0.06474149972200394,
          0.0429055355489254,
          -0.040045324712991714,
          -0.4310474097728729,
          0.11769316345453262,
          -0.22836759686470032,
          0.035022612661123276,
          0.7562815546989441,
          -0.03063824214041233,
          0.09010626375675201,
          0.05584296956658363,
          -0.08737796545028687,
          0.06884950399398804,
          0.10744205862283707,
          0.005029161926358938,
          0.39250293374061584,
          -0.7272940278053284,
          0.07437670230865479,
          -0.7566206455230713,
          0.8289585709571838,
          0.19185563921928406,
          -0.08445420861244202,
          -0.168990820646286,
          -0.3316914737224579,
          -0.057127468287944794,
          0.2750537395477295,
          -0.07217686623334885,
          0.02085455134510994,
          -0.19745419919490814,
          -0.194346621632576,
          -0.05327289551496506,
          -0.09612297266721725,
          0.003074083011597395,
          0.009594044648110867,
          0.5468828082084656,
          0.07908710092306137,
          0.024405021220445633,
          -0.07103202491998672,
          0.004255065694451332,
          -0.13708700239658356
        ],
        [
          1.8520442247390747,
          -0.10775692760944366,
          0.2550903558731079,
          -0.8452301621437073,
          -0.13633595407009125,
          0.0027237546164542437,
          -0.003293971996754408,
          0.09782318770885468,
          0.10943686217069626,
          -0.11239323019981384,
          -0.4225596487522125,
          -0.4274984300136566,
          0.11418286710977554,
          0.08978944271802902,
          1.373426079750061,
          -0.06286071240901947,
          -0.24936646223068237,
          -0.10425198823213577,
          0.06805111467838287,
          -0.08440789580345154,
          -1.910809874534607,
          0.09688039124011993,
          -0.08317965269088745,
          -0.23680636286735535,
          -0.1317855417728424,
          0.06857968866825104,
          0.018876276910305023,
          -0.03824713081121445,
          -1.0316977500915527,
          -1.1958163976669312,
          0.2604762315750122,
          0.1410915106534958,
          1.0661360025405884,
          0.111568883061409,
          -0.05975760146975517,
          0.11859288066625595,
          1.1071836948394775,
          -0.0003285121638327837,
          0.19309936463832855,
          -0.03607233241200447,
          0.08536791801452637,
          -0.0765731930732727,
          -0.36588355898857117,
          -0.08038516342639923,
          0.1201113611459732,
          -2.063584327697754,
          0.3363715708255768,
          -0.0645405650138855,
          0.18184399604797363,
          -0.17108392715454102,
          0.5550279021263123,
          -0.16787730157375336,
          0.6651409864425659,
          0.0976158082485199,
          -1.253749966621399,
          0.4062037467956543,
          1.7865675687789917,
          -0.6862339973449707,
          0.22508972883224487,
          0.048756543546915054,
          -0.05568546801805496,
          -0.09330891817808151,
          0.05996183678507805,
          -0.6581922173500061,
          0.08523295819759369,
          -1.3139898777008057,
          -0.038730818778276443,
          -0.28035837411880493,
          0.8776000738143921,
          0.04693930223584175,
          0.23756565153598785,
          0.012207631953060627,
          -0.9189354777336121,
          0.0700058788061142,
          -0.11748417466878891,
          1.6727828979492188,
          0.069761723279953,
          0.10551151633262634,
          0.23100973665714264,
          0.023473644629120827,
          -1.533406138420105,
          -0.5110651254653931,
          0.09802624583244324,
          0.10594244301319122,
          0.11387500911951065,
          -0.24922288954257965,
          -0.09732886403799057,
          1.1250089406967163,
          -0.11514868587255478,
          -0.10146088153123856,
          -0.158130943775177,
          -1.0821806192398071,
          -0.08645088970661163,
          -0.03633034601807594,
          -0.23736420273780823,
          0.36067822575569153,
          -0.4357118010520935,
          -0.0262855663895607,
          0.37591415643692017,
          -0.08631215989589691,
          -1.0581724643707275,
          -0.10370244085788727,
          0.04076137766242027,
          0.09277977794408798,
          -0.650026798248291,
          -0.14891529083251953,
          -1.1421282291412354,
          0.29136884212493896,
          1.1957218647003174,
          -0.11608143895864487,
          0.009545782580971718,
          -0.06265281140804291,
          -0.02164088375866413,
          0.1098453551530838,
          -0.07480759173631668,
          0.04926617443561554,
          -0.017868738621473312,
          -1.43258798122406,
          -0.04690204933285713,
          0.0069585200399160385,
          -0.14874620735645294,
          -0.016015227884054184,
          1.1248317956924438,
          -0.221673384308815,
          -0.10933881253004074,
          -0.11131070554256439,
          0.06292712688446045,
          -0.060659341514110565
        ],
        [
          -2.9272072315216064,
          0.09059365838766098,
          0.8233896493911743,
          0.5832948088645935,
          -0.02770659327507019,
          -0.030774030834436417,
          -0.03000192902982235,
          -0.07597386091947556,
          0.22464217245578766,
          -0.03425527736544609,
          1.7420291900634766,
          -2.169989824295044,
          0.1639271080493927,
          -0.03417164087295532,
          -0.7153774499893188,
          0.12326835095882416,
          0.17858605086803436,
          0.06655075401067734,
          -0.009370085783302784,
          -0.18166190385818481,
          1.7793830633163452,
          -0.1272449791431427,
          0.08021161705255508,
          -1.1641932725906372,
          0.17314621806144714,
          0.031207025051116943,
          -0.04360722377896309,
          -0.13169598579406738,
          0.45559826493263245,
          1.719081163406372,
          -1.522598147392273,
          0.03478415310382843,
          0.49039894342422485,
          0.023253073915839195,
          0.08855600655078888,
          -0.06129845604300499,
          -0.7053421139717102,
          0.08226175606250763,
          0.349704384803772,
          -0.11084528267383575,
          0.6141520738601685,
          -0.10048794001340866,
          -1.624768853187561,
          -0.13325397670269012,
          -2.111335277557373,
          1.7503942251205444,
          -0.2947526276111603,
          -0.011212624609470367,
          0.19103583693504333,
          0.05431343987584114,
          -0.5219161510467529,
          0.5195658206939697,
          -0.13966326415538788,
          -1.6057641506195068,
          2.332434892654419,
          -0.7470316290855408,
          -0.8884227275848389,
          -0.3228813111782074,
          0.13854347169399261,
          -0.04422011598944664,
          0.049942661076784134,
          -0.09468694031238556,
          -0.13205045461654663,
          1.6755362749099731,
          0.04873114824295044,
          0.29262998700141907,
          0.34462493658065796,
          0.07267651706933975,
          -1.5471450090408325,
          -0.12953099608421326,
          -0.24069353938102722,
          -0.00015954951231833547,
          0.4856778085231781,
          -0.07598580420017242,
          -0.047370534390211105,
          -1.0644413232803345,
          -0.06244949623942375,
          -0.09670095890760422,
          -0.6806015968322754,
          0.08513963222503662,
          1.1279832124710083,
          -1.444106101989746,
          0.0026641772128641605,
          0.10476841777563095,
          0.160500630736351,
          -0.8146616220474243,
          0.05614230036735535,
          -3.0396568775177,
          -0.09149814397096634,
          0.061836838722229004,
          -0.04296719655394554,
          0.0217572208493948,
          0.0811605155467987,
          0.03769506886601448,
          0.02973335050046444,
          0.5335097908973694,
          3.202655553817749,
          0.11623860895633698,
          1.888842225074768,
          -0.08382073789834976,
          0.6552314162254333,
          0.00025458112941123545,
          -0.140817329287529,
          -0.023140277713537216,
          -0.4309605360031128,
          -0.02416197583079338,
          0.09412478655576706,
          0.4192424714565277,
          0.0321878045797348,
          -0.05981292203068733,
          0.0037891543470323086,
          -1.195490837097168,
          0.06315851956605911,
          -0.05434417724609375,
          -0.01948491297662258,
          -0.06278825551271439,
          0.006332289893180132,
          0.9357122182846069,
          0.09075785428285599,
          0.10618819296360016,
          0.07793685793876648,
          0.08435820043087006,
          -2.8223540782928467,
          0.8132345676422119,
          -0.07446053624153137,
          0.12658019363880157,
          0.040912676602602005,
          0.02677598036825657
        ],
        [
          -0.7166838645935059,
          -0.08761444687843323,
          0.18881623446941376,
          -0.29686233401298523,
          -0.050379373133182526,
          0.012305129319429398,
          -0.12343699485063553,
          0.009546726010739803,
          -0.32197415828704834,
          0.10824798047542572,
          0.1753925234079361,
          -0.8389472365379333,
          0.14120352268218994,
          -0.12279868125915527,
          -0.3324214816093445,
          0.09693629294633865,
          -0.0944124236702919,
          -0.0055555785074830055,
          0.11073485761880875,
          0.026204222813248634,
          0.4953450858592987,
          -0.03731926530599594,
          -0.0017892469186335802,
          -0.6055023074150085,
          0.39787033200263977,
          -0.040480099618434906,
          -0.07628905773162842,
          -0.08288059383630753,
          -0.5991737842559814,
          0.7337297797203064,
          -0.0037427067290991545,
          0.009128947742283344,
          0.16583116352558136,
          0.0402221754193306,
          0.10266953706741333,
          0.044068340212106705,
          -0.09247194975614548,
          -0.08808733522891998,
          0.11982996761798859,
          -0.0794067531824112,
          0.09951004385948181,
          -0.08277348428964615,
          0.3549281060695648,
          -0.06637691706418991,
          -1.0365296602249146,
          0.42921730875968933,
          -0.10622601956129074,
          -0.08144523948431015,
          0.060278672724962234,
          -0.144415020942688,
          0.25302326679229736,
          0.1635706126689911,
          0.13315066695213318,
          -0.4011126458644867,
          0.8605637550354004,
          0.061011604964733124,
          -0.8782266974449158,
          -0.6495203971862793,
          -0.029552754014730453,
          0.060478731989860535,
          -0.08490457385778427,
          0.03656606748700142,
          0.060627281665802,
          0.1557905673980713,
          -0.03675069659948349,
          -0.006383361294865608,
          0.10903354734182358,
          -0.18187592923641205,
          -0.4280986785888672,
          0.07412545382976532,
          -0.35543978214263916,
          -0.07066468149423599,
          -0.3446819484233856,
          -0.03684268891811371,
          0.21923315525054932,
          0.289530485868454,
          -0.0019222848350182176,
          -0.0630965381860733,
          -0.3671947717666626,
          -0.1137753501534462,
          0.023310957476496696,
          -0.7845539450645447,
          -0.03941407799720764,
          0.09998971223831177,
          -0.08405835926532745,
          0.19420745968818665,
          -0.026604361832141876,
          -1.2205396890640259,
          -0.11945781856775284,
          0.03889431804418564,
          0.046366602182388306,
          0.5878331661224365,
          0.05943822115659714,
          0.18127933144569397,
          -0.18277007341384888,
          -0.11357630789279938,
          0.7296413779258728,
          0.04110248386859894,
          0.09810194373130798,
          0.0694550946354866,
          0.042488109320402145,
          0.027646921575069427,
          -0.11611655354499817,
          -0.37505412101745605,
          -0.8305804133415222,
          -0.0028498221654444933,
          -0.14618262648582458,
          0.24429172277450562,
          0.3058391213417053,
          0.016184505075216293,
          -0.08070322871208191,
          -0.18037956953048706,
          0.09637463837862015,
          0.0538841150701046,
          0.08345251530408859,
          -0.06734301149845123,
          -0.0344451367855072,
          0.35091808438301086,
          -0.14148496091365814,
          0.07266782224178314,
          0.09422101080417633,
          0.026145711541175842,
          -0.24637165665626526,
          0.060151416808366776,
          -0.026316946372389793,
          0.01603424735367298,
          0.018914857879281044,
          -0.08381882309913635
        ],
        [
          1.1398590803146362,
          -0.1415257751941681,
          -0.8087006211280823,
          -0.32017871737480164,
          -0.11127126216888428,
          0.02988624759018421,
          0.00039773419848643243,
          0.06485453248023987,
          -1.2707996368408203,
          0.09768638014793396,
          -0.2807523310184479,
          0.16467884182929993,
          -0.134308859705925,
          0.07535082846879959,
          -0.2327808141708374,
          0.04241518676280975,
          -0.03754052892327309,
          0.007457618601620197,
          0.025224974378943443,
          -0.11777637153863907,
          0.6940884590148926,
          0.09348096698522568,
          0.021911470219492912,
          -2.1076695919036865,
          -0.2653043270111084,
          0.13150741159915924,
          -0.011691640131175518,
          -0.15119503438472748,
          -1.0373870134353638,
          0.301011860370636,
          2.4842844009399414,
          0.00031615825719200075,
          -1.585160493850708,
          0.01014686655253172,
          -0.30350568890571594,
          0.07982733845710754,
          1.9658410549163818,
          -0.00863382127135992,
          -0.1989116072654724,
          -0.13013063371181488,
          -0.34732478857040405,
          -0.06839201599359512,
          -0.11125190556049347,
          0.0962386429309845,
          -0.2861498296260834,
          -1.1808725595474243,
          -0.06452935189008713,
          -0.02897866815328598,
          -0.0880957767367363,
          -0.02963496744632721,
          0.11104967445135117,
          -0.1481693685054779,
          -0.23882901668548584,
          -0.04457739740610123,
          -2.149357795715332,
          2.443725109100342,
          0.9959647059440613,
          -0.05165912210941315,
          -0.015884172171354294,
          0.04048246517777443,
          0.06553684175014496,
          0.07915829122066498,
          0.0757833868265152,
          1.2822514772415161,
          0.08201904594898224,
          -0.1513896882534027,
          -0.0854547917842865,
          -0.1213083565235138,
          0.4534848630428314,
          0.035340260714292526,
          0.6587145328521729,
          -0.12054798752069473,
          1.1732887029647827,
          -0.10703994333744049,
          -0.11864252388477325,
          3.2895824909210205,
          -0.03636842221021652,
          0.0741034522652626,
          0.8100649118423462,
          -0.0011475988430902362,
          -1.9780172109603882,
          0.4831908345222473,
          0.1512622833251953,
          0.12182275950908661,
          0.0003233388706576079,
          1.8936847448349,
          -0.03990060091018677,
          0.4087885618209839,
          0.05906260758638382,
          0.06863346695899963,
          -0.0018567623337730765,
          2.2416024208068848,
          -0.02194165252149105,
          -0.14718671143054962,
          0.16467426717281342,
          2.0230636596679688,
          -0.4740976095199585,
          -0.12569689750671387,
          -0.21644775569438934,
          -0.10570789128541946,
          -1.4009774923324585,
          0.027070991694927216,
          -0.09657730162143707,
          0.7027645111083984,
          -2.269949197769165,
          0.0021898860577493906,
          1.012519359588623,
          -1.455356478691101,
          -0.8490028381347656,
          -0.11295779794454575,
          -0.11882569640874863,
          0.6825351715087891,
          -0.06626060605049133,
          -0.1266319453716278,
          0.0889212116599083,
          -0.017844704911112785,
          -0.1707683950662613,
          -0.4567190706729889,
          -0.05813087895512581,
          -0.0660768449306488,
          -0.17049643397331238,
          -0.12231725454330444,
          1.8288902044296265,
          -0.16360364854335785,
          -0.003446384100243449,
          -0.11781477928161621,
          0.01659770868718624,
          0.00446800421923399
        ],
        [
          -0.2569367289543152,
          -0.06879445165395737,
          0.6755433678627014,
          0.33863410353660583,
          -0.059979118406772614,
          -0.15202388167381287,
          0.05706280097365379,
          0.078814297914505,
          0.5580827593803406,
          -0.13158313930034637,
          0.11059476435184479,
          -1.9031461477279663,
          0.014839938841760159,
          0.0033051513601094484,
          0.06515111774206161,
          0.07685378938913345,
          0.04023732244968414,
          -0.08082085847854614,
          -0.1537301242351532,
          -0.05263226106762886,
          -0.46755602955818176,
          -0.06523207575082779,
          -0.1505950540304184,
          -1.3897792100906372,
          0.15551413595676422,
          -0.06157981604337692,
          -0.06434359401464462,
          -0.07167436927556992,
          -0.24183058738708496,
          -1.0242702960968018,
          -0.7235626578330994,
          -0.14934134483337402,
          1.8539881706237793,
          0.013266502879559994,
          -0.003006821731105447,
          0.032867833971977234,
          1.374097466468811,
          -0.06711219251155853,
          0.38442331552505493,
          0.08902601897716522,
          0.3846883475780487,
          0.007135884836316109,
          -0.6246652603149414,
          0.11853234469890594,
          -1.9158647060394287,
          0.282808393239975,
          -0.09879723936319351,
          -0.09412845969200134,
          -0.021568085998296738,
          -0.10554604232311249,
          0.199527308344841,
          0.10675115138292313,
          0.5991318821907043,
          -1.560659646987915,
          0.873467206954956,
          -0.8930065035820007,
          -0.32208529114723206,
          -0.4801933467388153,
          -0.14038105309009552,
          0.04557894915342331,
          -0.04618874564766884,
          0.02073236182332039,
          0.08354774862527847,
          0.2620135247707367,
          0.09906226396560669,
          -0.7587936520576477,
          0.11079239845275879,
          0.0832352340221405,
          1.1958396434783936,
          -0.10240757465362549,
          -0.40092048048973083,
          0.008914679288864136,
          -1.3197362422943115,
          0.04842415824532509,
          0.21825513243675232,
          -0.9116663336753845,
          0.027801482006907463,
          -0.10283468663692474,
          -0.6705970168113708,
          -0.03590825945138931,
          0.6843134164810181,
          -1.5141297578811646,
          -0.15769310295581818,
          -0.07586327940225601,
          -0.18145164847373962,
          -1.53627347946167,
          0.0061070919036865234,
          -1.4818209409713745,
          0.030191821977496147,
          -0.13480427861213684,
          -0.06902564316987991,
          -0.26782363653182983,
          -0.027041563764214516,
          0.1796661615371704,
          -0.10248145461082458,
          0.9978124499320984,
          1.1386537551879883,
          0.123093381524086,
          0.9311323761940002,
          0.07386872917413712,
          0.39506304264068604,
          0.019513264298439026,
          -0.09615131467580795,
          -0.842732846736908,
          -0.9846352338790894,
          0.09129910916090012,
          -1.4392751455307007,
          0.02999238111078739,
          0.8891255855560303,
          0.11354478448629379,
          0.020271852612495422,
          -1.620491623878479,
          -0.024053722620010376,
          -0.058914121240377426,
          -0.08993645012378693,
          -0.05233526602387428,
          -0.0010699148988351226,
          0.318546861410141,
          -0.061012864112854004,
          0.009575091302394867,
          -0.02008465677499771,
          -0.011717603541910648,
          -1.3969758749008179,
          0.9248587489128113,
          -0.20848365128040314,
          -0.12322241812944412,
          -0.017740683630108833,
          -0.09311234951019287
        ],
        [
          -2.0207362174987793,
          -0.06844518333673477,
          1.0579407215118408,
          -0.5851753950119019,
          0.031001916155219078,
          -0.13429951667785645,
          -0.01576829142868519,
          0.09030188620090485,
          0.7933108806610107,
          -0.002986321924254298,
          0.24083338677883148,
          0.09349465370178223,
          -0.019073234871029854,
          -0.25895336270332336,
          0.3527420163154602,
          -0.10810420662164688,
          -0.053918737918138504,
          0.0014084872091189027,
          0.11572124809026718,
          0.020749274641275406,
          -1.290247917175293,
          -0.08203418552875519,
          0.08462736010551453,
          1.5254942178726196,
          -0.23407100141048431,
          0.06885859370231628,
          0.004428917076438665,
          -0.1804341971874237,
          0.9962853789329529,
          -0.5059139132499695,
          -2.9336400032043457,
          0.03966006264090538,
          2.455568552017212,
          0.0640944242477417,
          0.04812813177704811,
          -0.05076179653406143,
          -1.5913927555084229,
          0.040297333151102066,
          0.14159877598285675,
          -0.0922614336013794,
          0.20078402757644653,
          0.02863696590065956,
          0.4697668254375458,
          0.007763326168060303,
          0.5817951560020447,
          1.5741446018218994,
          -0.006137765944004059,
          0.06438426673412323,
          -0.26218104362487793,
          -0.12476746737957001,
          1.8051459789276123,
          -0.14697577059268951,
          -0.21076005697250366,
          0.023977218195796013,
          3.3444647789001465,
          -4.122447967529297,
          0.2060186117887497,
          -0.5457108020782471,
          0.006732560228556395,
          0.08580760657787323,
          -0.1238742545247078,
          0.028086096048355103,
          -0.08741948753595352,
          -1.9483919143676758,
          -0.10144473612308502,
          0.42368707060813904,
          -0.16194088757038116,
          -0.1560758799314499,
          1.572670578956604,
          -0.012193683534860611,
          -0.1136220172047615,
          -0.15174606442451477,
          -2.5858092308044434,
          -0.08962845802307129,
          -0.08549871295690536,
          -3.5897066593170166,
          0.035683147609233856,
          -0.12346142530441284,
          -0.717976987361908,
          -0.02379649318754673,
          2.7679214477539062,
          -1.1032954454421997,
          0.015185163356363773,
          0.09468041360378265,
          -0.11414827406406403,
          -3.0272955894470215,
          0.12742890417575836,
          -0.6488104462623596,
          0.023271111771464348,
          0.1556301862001419,
          0.06287498772144318,
          -1.9230767488479614,
          0.09684982150793076,
          0.017307210713624954,
          -0.20016148686408997,
          -2.1257200241088867,
          -0.04877084866166115,
          0.035461485385894775,
          0.28062018752098083,
          -0.048329856246709824,
          0.6843434572219849,
          0.0611952506005764,
          -0.028920631855726242,
          -1.857683539390564,
          2.84652042388916,
          0.031992968171834946,
          -1.864475965499878,
          0.057386111468076706,
          1.5058298110961914,
          0.017602913081645966,
          0.06875617057085037,
          -0.517566442489624,
          -0.12979310750961304,
          -0.039693791419267654,
          -0.020164182409644127,
          -0.016006553545594215,
          -0.0019330654758960009,
          -0.04659271612763405,
          0.10583271831274033,
          -0.014200698584318161,
          -0.12561140954494476,
          -0.13685554265975952,
          -2.9837276935577393,
          0.04143725708127022,
          -0.07764323055744171,
          -0.31934720277786255,
          -0.004693698603659868,
          -0.054768770933151245
        ],
        [
          -0.02520204335451126,
          -0.027401596307754517,
          0.12665428221225739,
          0.13208942115306854,
          0.0584913045167923,
          -0.08037859946489334,
          0.05227452516555786,
          0.0034561455249786377,
          -0.08427055180072784,
          -0.06483804434537888,
          -0.04461222141981125,
          0.06792320311069489,
          0.11786119639873505,
          0.1252477616071701,
          -0.033317841589450836,
          0.009286463260650635,
          -0.09870849549770355,
          -0.04724127799272537,
          -0.02687905728816986,
          -0.051299095153808594,
          -0.008864447474479675,
          -0.04459052532911301,
          -0.06610604375600815,
          0.037009745836257935,
          -0.09550850838422775,
          0.0756237804889679,
          0.019212067127227783,
          0.11484622955322266,
          0.11536215245723724,
          0.05831208825111389,
          0.10318298637866974,
          -0.04820933938026428,
          0.059740692377090454,
          -0.0634755790233612,
          -0.029420338571071625,
          0.026911810040473938,
          -0.12984761595726013,
          -0.09478215873241425,
          0.023189350962638855,
          0.040060415863990784,
          0.02986373007297516,
          0.06334646046161652,
          -0.0388253852725029,
          -0.009827733039855957,
          0.05550678074359894,
          0.02240145206451416,
          -0.0843849629163742,
          -0.13100889325141907,
          -0.023877747356891632,
          0.08606564998626709,
          -0.12013888359069824,
          -0.025656618177890778,
          0.04827006161212921,
          -0.0651879608631134,
          -0.057545728981494904,
          -0.02158946543931961,
          -0.07993698865175247,
          0.06488531827926636,
          0.03315131366252899,
          -0.04522976279258728,
          -0.12175686657428741,
          0.07982639968395233,
          0.08852262794971466,
          0.004669442772865295,
          0.014607563614845276,
          -0.09951509535312653,
          0.09076830744743347,
          -0.04220984876155853,
          0.12604357302188873,
          0.12477381527423859,
          -0.002560839056968689,
          -0.12700940668582916,
          0.0409417599439621,
          0.034589529037475586,
          -0.06802946329116821,
          0.04867704212665558,
          -0.10645370185375214,
          -0.042184293270111084,
          0.0458381325006485,
          0.05488382279872894,
          -0.04885915666818619,
          0.04340663552284241,
          -0.05727527290582657,
          0.09308457374572754,
          -0.0283038392663002,
          0.05974245071411133,
          -0.1331205666065216,
          -0.0897657722234726,
          0.004474863409996033,
          0.06689129769802094,
          -0.04627066105604172,
          -0.09469987452030182,
          0.09548655152320862,
          -0.04691483825445175,
          0.035977959632873535,
          -0.10964342951774597,
          0.03599388897418976,
          0.03065134584903717,
          0.10607577860355377,
          0.04108324646949768,
          -0.08771471679210663,
          0.10202382504940033,
          -0.10739395022392273,
          0.08561046421527863,
          -0.10034677386283875,
          -0.1074053943157196,
          0.01805122196674347,
          0.026895299553871155,
          -0.0822513997554779,
          -0.03492164611816406,
          0.025973469018936157,
          -0.11549171805381775,
          -0.06131139397621155,
          -0.07975614815950394,
          0.10128119587898254,
          0.05351254343986511,
          -0.028363384306430817,
          0.03994657099246979,
          -0.030130982398986816,
          0.0009678453207015991,
          0.08930803835391998,
          -0.056493423879146576,
          0.021412581205368042,
          -0.03286702185869217,
          0.006811738014221191,
          -0.0065524280071258545,
          0.0848851352930069,
          -0.09174586832523346
        ],
        [
          -0.035882093012332916,
          0.11551864445209503,
          0.11034893989562988,
          0.11809320747852325,
          0.10385426878929138,
          0.059893980622291565,
          -0.029552973806858063,
          -0.12757517397403717,
          0.08541974425315857,
          -0.12919794023036957,
          0.0565086305141449,
          0.0831340104341507,
          0.05833691358566284,
          -0.0561581626534462,
          -0.12795813381671906,
          0.07496429979801178,
          -0.039809033274650574,
          -0.026911206543445587,
          -0.10870999842882156,
          0.011758670210838318,
          0.039262086153030396,
          -0.11419444531202316,
          0.10134045779705048,
          -0.11568017303943634,
          0.013463273644447327,
          -0.10378742963075638,
          -0.12362730503082275,
          0.07769939303398132,
          -0.09878970682621002,
          -0.01939944177865982,
          -0.1316993236541748,
          -0.07427062094211578,
          0.03963753581047058,
          0.1192539781332016,
          0.10625062882900238,
          -0.08829011023044586,
          0.07456165552139282,
          -0.12592004239559174,
          0.050447672605514526,
          -0.009246572852134705,
          -0.09056004136800766,
          -0.11488191783428192,
          0.03377245366573334,
          0.015169352293014526,
          -0.045181334018707275,
          -0.06353181600570679,
          -0.1301092952489853,
          -0.009008742868900299,
          0.09855416417121887,
          -0.0060259997844696045,
          0.024519160389900208,
          0.102871835231781,
          0.10315796732902527,
          -0.07542793452739716,
          0.1174323707818985,
          0.054200395941734314,
          0.043932393193244934,
          0.11441606283187866,
          -0.09685513377189636,
          0.02237166464328766,
          -0.06725230067968369,
          -0.11533685028553009,
          0.07230567932128906,
          -0.002140924334526062,
          0.07557123899459839,
          0.13273398578166962,
          -0.04841397702693939,
          -0.10030793398618698,
          0.02102579176425934,
          -0.03813204914331436,
          -0.08197535574436188,
          0.02931647002696991,
          -0.009366653859615326,
          -0.09419696033000946,
          -0.124114029109478,
          -0.001220017671585083,
          -0.0661531314253807,
          -0.11216053366661072,
          -0.09861696511507034,
          -0.012981496751308441,
          -0.065462626516819,
          0.03543643653392792,
          0.10688875615596771,
          0.12569527328014374,
          -0.09804622828960419,
          -0.03768100589513779,
          -0.09592195600271225,
          0.0009065419435501099,
          -0.07715009152889252,
          -0.07764223217964172,
          -0.08809560537338257,
          -0.09633877873420715,
          0.11129598319530487,
          -0.009301148355007172,
          0.04925002157688141,
          0.0004907995462417603,
          0.12126640975475311,
          -0.12328700721263885,
          -0.026460036635398865,
          0.11649538576602936,
          0.023535355925559998,
          0.0012217313051223755,
          -0.11456863582134247,
          -0.11262878030538559,
          -0.045664235949516296,
          0.05375643074512482,
          0.08841417729854584,
          -0.11331143975257874,
          -0.03458625078201294,
          0.03314347565174103,
          0.09390725195407867,
          0.09419237077236176,
          0.008208125829696655,
          0.05615812540054321,
          -0.0349065437912941,
          -0.0014216601848602295,
          -0.0017972886562347412,
          0.02286788821220398,
          0.031269341707229614,
          0.003483697772026062,
          0.13070617616176605,
          -0.12787997722625732,
          0.07110223174095154,
          -0.06969106197357178,
          0.10466788709163666,
          0.09661854803562164,
          -0.09257569909095764,
          -0.1200931966304779
        ],
        [
          -0.19254104793071747,
          0.005553890485316515,
          -0.303616464138031,
          -1.1951829195022583,
          0.09881797432899475,
          -0.015993939712643623,
          -0.08616013079881668,
          -0.05513995885848999,
          0.04419052600860596,
          0.11110230535268784,
          -0.3919656276702881,
          -0.16860711574554443,
          -0.14434827864170074,
          -0.0737193301320076,
          0.6073682308197021,
          -0.12733833491802216,
          -0.1459868997335434,
          -0.0819191038608551,
          -0.09942613542079926,
          0.023030392825603485,
          -0.051165495067834854,
          0.07049303501844406,
          -0.019469331949949265,
          -0.01925315335392952,
          -0.299058735370636,
          0.04390762746334076,
          0.030565844848752022,
          -0.1557634472846985,
          0.22383324801921844,
          -0.5537489056587219,
          -1.9626821279525757,
          0.07172556966543198,
          0.5255610346794128,
          -0.016163457185029984,
          -0.22500070929527283,
          0.03135041147470474,
          0.3885493576526642,
          -0.10444679856300354,
          -0.39132359623908997,
          0.07801803201436996,
          -0.3015079200267792,
          -0.03559842333197594,
          0.9111656546592712,
          -0.09821756184101105,
          -0.018948709592223167,
          0.2728695869445801,
          0.027280936017632484,
          -0.023647397756576538,
          -0.35566505789756775,
          0.01969861052930355,
          0.21293556690216064,
          -0.14544811844825745,
          0.16544225811958313,
          -0.40510278940200806,
          -0.05909541994333267,
          -0.5145021677017212,
          1.3787899017333984,
          0.4087863266468048,
          -0.14827695488929749,
          0.007340532727539539,
          -0.12850132584571838,
          -0.14861364662647247,
          0.013135876506567001,
          -0.6456378698348999,
          -0.03453129529953003,
          -0.09830768406391144,
          -0.09632417559623718,
          -0.3142017722129822,
          1.301374912261963,
          0.05011158809065819,
          0.4385412931442261,
          -0.17003487050533295,
          -1.7729908227920532,
          -0.11519243568181992,
          -0.0357862152159214,
          -0.7895962595939636,
          0.008849128149449825,
          0.097161203622818,
          0.08684822171926498,
          -0.03814470395445824,
          1.4402786493301392,
          -0.21390390396118164,
          -0.1422516107559204,
          -0.01931041292846203,
          -0.11428654193878174,
          -0.5089265704154968,
          0.07689878344535828,
          0.12191686779260635,
          -0.08029951900243759,
          0.07803609222173691,
          0.07512413710355759,
          0.19769026339054108,
          -0.12240543216466904,
          -0.12166137248277664,
          0.09847619384527206,
          -0.8453421592712402,
          -0.7493257522583008,
          -0.10731063783168793,
          0.011585349217057228,
          -0.10459249466657639,
          -0.049521055072546005,
          -0.01205495186150074,
          0.03704613447189331,
          -0.6149834394454956,
          1.4857122898101807,
          0.09904792159795761,
          0.14027933776378632,
          -0.7658363580703735,
          0.6070832014083862,
          -0.027539687231183052,
          -0.02871108055114746,
          -0.5009949803352356,
          -0.09156004339456558,
          -0.031153816729784012,
          0.012750308029353619,
          0.048824407160282135,
          -0.14121311902999878,
          -0.3545214533805847,
          -0.0909997969865799,
          -0.058805789798498154,
          -0.04440872371196747,
          -0.045992542058229446,
          -0.04257240891456604,
          -0.18525053560733795,
          0.01820039562880993,
          -0.19546294212341309,
          -0.04121655970811844,
          -0.11482257395982742
        ],
        [
          1.2331360578536987,
          -0.05785893276333809,
          -0.5945168137550354,
          -0.3339900076389313,
          -0.06939303129911423,
          -0.11506891995668411,
          -0.013826818205416203,
          -0.09539391845464706,
          -0.36440297961235046,
          0.09954875707626343,
          -0.6930378079414368,
          2.0231432914733887,
          -0.0575767457485199,
          -0.12304851412773132,
          0.7858502864837646,
          0.025919901207089424,
          -0.18065743148326874,
          -0.0531461127102375,
          -0.0022656854707747698,
          -0.14621587097644806,
          0.09244686365127563,
          -0.06516017019748688,
          -0.08841267973184586,
          1.4750783443450928,
          -0.12660002708435059,
          0.031065821647644043,
          -0.15407812595367432,
          0.061428003013134,
          0.4681794345378876,
          -0.6544473767280579,
          0.593614935874939,
          -0.11093468964099884,
          -0.5861207246780396,
          0.06647668033838272,
          -0.12035990506410599,
          0.022995159029960632,
          -0.24842751026153564,
          -0.042085304856300354,
          -0.29383978247642517,
          -0.02068123035132885,
          -0.553569495677948,
          -0.0253012515604496,
          1.511015772819519,
          0.04712842404842377,
          1.8765102624893188,
          -0.9465906023979187,
          0.17873825132846832,
          0.06557624042034149,
          0.06434692442417145,
          -0.10243339836597443,
          0.17643192410469055,
          -0.22928912937641144,
          -0.3326478898525238,
          1.5122557878494263,
          -0.9596584439277649,
          1.1054579019546509,
          0.7160043120384216,
          1.589133858680725,
          0.011425300501286983,
          -0.13381706178188324,
          -0.05294959992170334,
          -0.053269967436790466,
          -0.11259754747152328,
          -0.8785181641578674,
          -0.023406125605106354,
          0.4252687096595764,
          -0.1116822361946106,
          0.0010171193862333894,
          0.9385542869567871,
          0.07539701461791992,
          0.36792510747909546,
          -0.0034762979485094547,
          -0.7633983492851257,
          0.006332288030534983,
          -0.09330073744058609,
          1.3548321723937988,
          -0.10723687708377838,
          0.03435784578323364,
          1.0458122491836548,
          -0.03594440221786499,
          0.3942272961139679,
          1.9332456588745117,
          -0.06688717007637024,
          -0.03428683429956436,
          0.03300671651959419,
          0.32692041993141174,
          -0.09587550163269043,
          2.551896095275879,
          -0.004875062964856625,
          0.04838060960173607,
          -0.06312205642461777,
          0.17329610884189606,
          -0.03885400667786598,
          -0.11570896953344345,
          -0.05249299481511116,
          -0.5975030064582825,
          -2.666210412979126,
          0.1146509051322937,
          -1.3106318712234497,
          0.08063378930091858,
          -0.5743328332901001,
          -0.01922565884888172,
          0.033523548394441605,
          0.27746665477752686,
          1.139112114906311,
          -0.07809063047170639,
          0.6815249919891357,
          -0.17895492911338806,
          -1.068964958190918,
          -0.06301671266555786,
          0.047869011759757996,
          0.8137904405593872,
          -0.043289344757795334,
          -0.060991499572992325,
          0.071991465985775,
          0.06237180158495903,
          -0.17768634855747223,
          -0.8627917170524597,
          -0.051404304802417755,
          0.05983993038535118,
          -0.16250978410243988,
          -0.0009049212094396353,
          0.6770678758621216,
          -0.7690703272819519,
          -0.019198527559638023,
          -0.1069069653749466,
          -0.01826588623225689,
          0.05077469348907471
        ],
        [
          0.8329946398735046,
          0.07192956656217575,
          -0.38675427436828613,
          0.3575552999973297,
          0.12746137380599976,
          -0.014748741872608662,
          0.01213103998452425,
          -0.04340013489127159,
          -0.7444021701812744,
          0.07716533541679382,
          -0.438508003950119,
          0.5488908886909485,
          0.08473437279462814,
          -0.13306325674057007,
          -0.08366665989160538,
          -0.02050882577896118,
          0.04690044745802879,
          -0.14709405601024628,
          0.09969218820333481,
          -0.00822086539119482,
          1.0204254388809204,
          0.005443496163934469,
          -0.13054707646369934,
          0.04733021929860115,
          -0.07626447081565857,
          0.04796653985977173,
          -0.05247228592634201,
          -0.013294676318764687,
          -0.35875120759010315,
          0.18679967522621155,
          1.0985517501831055,
          -0.06678582727909088,
          -0.6990665197372437,
          -0.03372395038604736,
          -0.07396341115236282,
          -0.1889820694923401,
          -0.08897385001182556,
          -0.0695096030831337,
          0.12991675734519958,
          0.06847631931304932,
          -0.021022940054535866,
          -0.08267595618963242,
          -0.45522090792655945,
          -0.05182173103094101,
          0.6136800050735474,
          -0.3953941762447357,
          -0.09229405224323273,
          0.12937353551387787,
          0.04428473487496376,
          -0.16171500086784363,
          -0.2441849410533905,
          0.17920911312103271,
          -0.5608397126197815,
          0.46320027112960815,
          -0.4574992060661316,
          0.36850976943969727,
          -0.9313925504684448,
          0.3728555142879486,
          -0.011114883236587048,
          0.03314792737364769,
          -0.05929306522011757,
          -0.015408354811370373,
          0.08518383651971817,
          0.5851675868034363,
          -0.07748140394687653,
          -0.7149178385734558,
          -0.06152772903442383,
          -0.02087530307471752,
          -0.23428088426589966,
          -0.08158024400472641,
          0.012889189645648003,
          -0.02641613595187664,
          1.4773679971694946,
          0.02120620757341385,
          -0.059379734098911285,
          0.8154981136322021,
          0.02708396315574646,
          -0.20738013088703156,
          -0.4133230149745941,
          0.02121645398437977,
          -0.9029355049133301,
          0.3983442485332489,
          0.016547370702028275,
          0.09509461373090744,
          -0.1460067182779312,
          0.7092394828796387,
          -0.05664154142141342,
          0.3436659574508667,
          -0.03712176904082298,
          0.04440506920218468,
          0.09561797231435776,
          1.2196364402770996,
          0.06952112913131714,
          -0.15007580816745758,
          0.015108956024050713,
          0.4516019821166992,
          0.24451950192451477,
          0.0687413364648819,
          -0.20624855160713196,
          0.09192473441362381,
          0.020937690511345863,
          -0.05900949239730835,
          -0.03236060217022896,
          1.0161879062652588,
          -0.4765031635761261,
          -0.0175994373857975,
          0.4051266014575958,
          -0.17884467542171478,
          -1.1825194358825684,
          0.08801773190498352,
          -0.058530718088150024,
          0.7718780040740967,
          0.07604198157787323,
          0.07621380686759949,
          -0.12253844738006592,
          -0.002422279678285122,
          -0.024159280583262444,
          0.6278133988380432,
          -0.09251917153596878,
          0.05991271138191223,
          -0.15786728262901306,
          0.03552764654159546,
          1.1350470781326294,
          0.014140481129288673,
          -0.08559132367372513,
          -0.14741352200508118,
          0.0945553183555603,
          0.03605090454220772
        ],
        [
          -1.9371650218963623,
          0.08623979240655899,
          0.9317874908447266,
          1.7356550693511963,
          0.05118006095290184,
          -0.09402130544185638,
          0.08212845772504807,
          0.05089941248297691,
          0.015548642724752426,
          -0.021723130717873573,
          1.864331841468811,
          -2.932180881500244,
          0.3372122347354889,
          0.13363835215568542,
          -0.6411036849021912,
          -0.014220905490219593,
          0.004016800317913294,
          -0.10522057116031647,
          -0.09970413148403168,
          -0.1933324784040451,
          0.725624144077301,
          0.051547545939683914,
          -0.09987980872392654,
          -2.7863471508026123,
          0.571731686592102,
          -0.11721133440732956,
          -0.007819507271051407,
          0.07965055853128433,
          -0.46329548954963684,
          1.3367072343826294,
          0.42640191316604614,
          0.10562243312597275,
          1.0833756923675537,
          0.0464855320751667,
          -0.004990195389837027,
          -0.09048048406839371,
          0.5856865048408508,
          -0.017907993867993355,
          1.2926692962646484,
          0.07626833021640778,
          0.7965368628501892,
          0.04747338965535164,
          -2.1973447799682617,
          0.10136836767196655,
          -3.0631163120269775,
          0.6535619497299194,
          -0.5453300476074219,
          0.060505375266075134,
          0.21246713399887085,
          -0.12534672021865845,
          0.28310033679008484,
          0.5545432567596436,
          -0.5799239277839661,
          -2.3167707920074463,
          1.9350796937942505,
          -1.463405728340149,
          -1.4623205661773682,
          -1.2880768775939941,
          -0.2072198987007141,
          0.10624540597200394,
          -0.008531270548701286,
          0.016367193311452866,
          0.022935165092349052,
          1.6906728744506836,
          -0.08261387050151825,
          0.31201672554016113,
          0.4737493097782135,
          0.32758402824401855,
          -0.9939484596252441,
          0.001245234627276659,
          -1.323156476020813,
          -0.06760559231042862,
          0.8811529278755188,
          -0.06912115961313248,
          0.3138667941093445,
          -1.257093906402588,
          -0.06902933120727539,
          -0.08040482550859451,
          -1.0445754528045654,
          0.05978168174624443,
          0.7224748730659485,
          -2.07700514793396,
          -0.13408532738685608,
          0.09291882067918777,
          0.12221238762140274,
          -1.7330045700073242,
          -0.01697186380624771,
          -2.6748454570770264,
          0.11134295165538788,
          0.006213665008544922,
          0.018468637019395828,
          -0.32582399249076843,
          -0.09004577249288559,
          0.002639895072206855,
          0.014831430278718472,
          1.5110810995101929,
          2.8411948680877686,
          -0.06694529950618744,
          1.747067928314209,
          -0.049662452191114426,
