{"format": "eventour-ncbf-dense-v1", "layers": [{"name": "dense", "activation": "relu", "kernel": [[0.10046230256557465, -0.21285392343997955, -0.12971821427345276, 0.0824594497680664, -0.09981181472539902, -0.15279017388820648, -0.12956032156944275, -0.1383884847164154, -1.395220160484314, -0.10270313918590546, 0.06417585164308548, 0.549496591091156, -0.1520933210849762, 0.394817590713501, -0.04563342034816742, -0.8900086879730225, 0.08691754937171936, -0.1379469633102417, -0.20062364637851715, -0.09568282961845398, -1.1185340881347656, -0.19796235859394073, 0.057667430490255356, -0.7031240463256836, 0.09017572551965714, 0.18683919310569763, -0.2713880240917206, 0.11025822162628174, -0.18357737362384796, -0.15196944773197174, 0.07666262239217758, 0.010626520961523056, -0.22261673212051392, -0.1653304249048233, -0.5961899161338806, -0.7539182901382446, -0.08399609476327896, 0.013211524114012718, 0.30941662192344666, 0.00095796660752967, -0.12059764564037323, 0.015829842537641525, -0.49226105213165283, -0.10771745443344116, 0.13521312177181244, -0.15370701253414154, -0.14146527647972107, -0.1453295797109604, -0.8596383333206177, 0.0848744809627533, -0.008151069283485413, 0.0035531222820281982, 0.07443170994520187, -0.5362033843994141, 0.11287759989500046, 0.18167462944984436, -0.03578289970755577, -0.06839986145496368, -0.4708552360534668, 0.046632908284664154, 0.03367924690246582, -0.16630762815475464, 0.10176477581262589, 0.1354827880859375], [-0.07247869670391083, 0.12844562530517578, -0.008886335417628288, 0.18989983201026917, -0.1661977469921112, -0.0724020004272461, -0.13429684937000275, 0.0761307030916214, -0.07694394141435623, -0.1952686905860901, 0.027556579560041428, -0.336546927690506, 0.05244400352239609, 0.17854604125022888, 0.0211152583360672, -0.00289938785135746, -0.12858666479587555, -0.24074476957321167, 0.015030943788588047, -0.12113717198371887, -0.21275576949119568, -0.13607335090637207, -0.013970298692584038, -0.052017003297805786, 0.05709119513630867, -0.021375633776187897, 0.12719595432281494, -0.010598610155284405, -0.18835130333900452, 0.001556587521918118, 0.0075117675587534904, -0.16201819479465485, -0.11821739375591278, -0.11490420997142792, -0.3024352788925171, -0.125729039311409, 0.06345663219690323, -0.12646426260471344, -0.1585441380739212, 0.0664653480052948, 0.1224389374256134, 0.16069641709327698, -0.20844465494155884, -0.07582030445337296, -0.07132084667682648, 0.0703069195151329, -0.16134652495384216, -0.024524284526705742, 0.16435298323631287, -0.15769529342651367, -0.07250028848648071, 0.11013354361057281, -0.004073361400514841, -0.34049296379089355, -0.09067638218402863, -0.33913081884384155, -0.022032635286450386, -0.10133475810289383, -0.16412068903446198, -0.1892770230770111, -0.05484354868531227, -0.13917779922485352, 0.14132873713970184, 0.07243282347917557], [-0.03199110925197601, -0.10327737778425217, -0.20244470238685608, -0.16661831736564636, -0.17307500541210175, 0.09983421117067337, -0.08170883357524872, -0.1010512188076973, 0.5499069094657898, -0.11684712022542953, -0.16626814007759094, -0.6956851482391357, 0.05622005835175514, 0.6481638550758362, -0.0849648043513298, 0.6800479292869568, -0.040316008031368256, 0.06828524172306061, -0.2250496745109558, -0.0023307630326598883, -0.28962239623069763, -0.15399186313152313, -0.142658993601799, -0.14918048679828644, 0.04846015200018883, -0.2944142818450928, 0.7593919038772583, 0.017807846888899803, -0.08442904055118561, 0.18265683948993683, 0.03585191071033478, 0.04978279396891594, -0.18397165834903717, -0.1626490205526352, -0.17470771074295044, -1.313320279121399, -0.13797476887702942, -0.13843891024589539, -0.029180914163589478, 0.024609293788671494, -0.17595110833644867, -0.060481566935777664, -0.4310619533061981, -0.12005738914012909, -0.003722311230376363, -0.026978714391589165, -0.17711058259010315, 0.03993482515215874, 0.4830968677997589, -0.13641510903835297, 0.06823880225419998, -0.06821718066930771, -0.14474885165691376, -0.7254697680473328, 0.1238439753651619, 0.11501430720090866, 0.474299818277359, 0.06595087051391602, -0.34150442481040955, -0.018203068524599075, 0.16966193914413452, -0.10284096747636795, 0.13385796546936035, -0.1560015082359314], [-0.12983089685440063, -0.02196192555129528, 0.02351381815969944, -0.16567566990852356, 0.05987642705440521, -0.1588463932275772, 0.1704997718334198, -0.17844389379024506, 0.9366844296455383, -0.07871536910533905, -0.19666123390197754, -0.6341466307640076, -0.20344145596027374, 0.14226198196411133, 0.046597689390182495, 0.055147018283605576, 0.11514991521835327, -0.07689639180898666, -0.09276185184717178, 0.028028909116983414, 0.23007282614707947, -0.06759540736675262, -0.11183245480060577, -0.30061328411102295, 0.033893272280693054, -0.06279591470956802, 0.4086282253265381, -0.0422825925052166, 0.14333495497703552, 0.1237015649676323, 0.06695554405450821, 0.12957164645195007, -0.18162842094898224, 0.13548588752746582, 0.5796403884887695, -0.5426371097564697, -0.04871148243546486, 0.12522006034851074, -0.32732880115509033, -0.004328188020735979, -0.14961284399032593, 0.05085207149386406, -0.06864441186189651, -0.23053324222564697, 0.0441942922770977, -0.04693649336695671, 0.07617463171482086, 0.1636287420988083, 0.44068992137908936, -0.18587861955165863, 0.10351867228746414, -0.03504480421543121, 0.006205790210515261, 0.1676003783941269, -0.10830716788768768, -0.32599103450775146, 0.4021046757698059, -0.1350342184305191, -0.010103147476911545, 0.0911344662308693, 0.10603957623243332, 0.11262993514537811, 0.014475369825959206, -0.05902261286973953], [0.10049176216125488, -0.19907242059707642, -0.060632701963186264, -0.03429584205150604, 0.09414734691381454, 0.007178903091698885, -0.04732552915811539, -0.1286122351884842, -1.02699875831604, -0.06525994092226028, -0.30890437960624695, 0.07231220602989197, -0.07713256776332855, -0.5288443565368652, -0.11707468330860138, 0.05015873536467552, -0.20551654696464539, 0.03284779191017151, 0.14687924087047577, 0.09418518096208572, -0.1158023402094841, 0.10975498706102371, 0.1268540769815445, 0.025880681350827217, 0.10514193773269653, 0.02192978374660015, -0.6775801181793213, 0.14245249330997467, 0.17286543548107147, 0.04804746061563492, 0.07843632996082306, -0.10897130519151688, -0.22434277832508087, -0.13791991770267487, -0.283221036195755, 0.24987877905368805, -0.15132205188274384, -0.14957976341247559, 0.09219115972518921, -0.05557470768690109, -0.1694713532924652, -0.015422419644892216, 0.022025248035788536, -0.2119671255350113, -0.06312108039855957, -0.1107315868139267, 0.06093974411487579, 0.10725657641887665, -0.64369136095047, -0.12332941591739655, 0.08426227420568466, -0.00846610963344574, -0.08871406316757202, 0.11647240072488785, -0.11121568828821182, 0.058506641536951065, -0.48353078961372375, 0.01690378412604332, 0.0022176511120051146, -0.13287708163261414, -0.007328126113861799, 0.15767128765583038, -0.14365510642528534, -0.045836273580789566], [-0.2141510546207428, -0.18770575523376465, 0.11158809810876846, -0.09142882376909256, -0.19771869480609894, 0.1534883677959442, -0.06169382110238075, -0.08960071951150894, -0.6190518140792847, 0.16215595602989197, -0.30826133489608765, 1.0442456007003784, -0.19964294135570526, -0.5593562126159668, 0.06642590463161469, -0.5680355429649353, 0.16091614961624146, 0.169845849275589, -0.45279380679130554, -0.14096151292324066, -0.2125011831521988, 0.14245249330997467, -0.15362955629825592, -0.233178049325943, -0.09974963217973709, -0.031062306836247444, -0.9822033643722534, 0.041629690676927567, -0.15692615509033203, -0.14661332964897156, 0.12466622143983841, 0.12540674209594727, -0.3390505909919739, 0.07694897055625916, 0.12302666157484055, 0.7060950398445129, -0.05430831015110016, -0.03461119532585144, -0.08679449558258057, -0.22041164338588715, -0.20127733051776886, 0.033943381160497665, 0.05016005039215088, 0.022247154265642166, -0.11345119774341583, 0.028587114065885544, 0.12349312007427216, 0.043680183589458466, -0.7948837280273438, 0.1030811220407486, -0.14828555285930634, -0.13947932422161102, 0.145100936293602, 0.09378687292337418, -0.0858449935913086, -0.5325942635536194, -0.8115375638008118, -0.18673287332057953, -0.06504660844802856, 0.11106470972299576, 0.050586722791194916, -0.15628845989704132, -0.06991192698478699, 0.0593625083565712], [-0.0005455710925161839, -0.11870601028203964, -0.10631605982780457, 0.17615768313407898, -0.20532365143299103, 0.0955759584903717, -0.13466748595237732, -0.014583535492420197, 0.49091100692749023, -0.05523033067584038, 0.010600022040307522, -0.7782710790634155, 0.03097447380423546, 0.22356656193733215, -0.14113156497478485, -0.11432136595249176, 0.009967234916985035, 0.0009453278034925461, -0.20492962002754211, 0.1613105833530426, 0.07134246826171875, -0.05856676027178764, 0.02559327334165573, 0.2553113102912903, 0.1422610878944397, -0.14876367151737213, 0.25549569725990295, -0.12189676612615585, 0.12442389875650406, 0.09508110582828522, 0.1124652847647667, -0.11288242042064667, -0.10604876279830933, 0.0001223456347361207, 0.08392442017793655, -0.4027605950832367, 0.12849250435829163, -0.06016257405281067, -0.0017691493267193437, -0.12492091208696365, 0.020462945103645325, 0.1342432200908661, -0.2382468730211258, 0.07127740979194641, -0.18949638307094574, 0.08271390944719315, 0.11617307364940643, 0.1267681121826172, -0.15558697283267975, 0.16978813707828522, -0.004573778249323368, 0.10659246146678925, -0.02404702827334404, -0.18089093267917633, 0.001751333475112915, -0.19507287442684174, 0.15129758417606354, -0.09854760020971298, 0.0851978287100792, -0.10723169147968292, -0.019696678966283798, 0.01051834225654602, -0.05924917384982109, 0.00687797088176012], [0.0376913845539093, 0.11181607842445374, 0.06183389574289322, 0.0032545493450015783, 0.01033839676529169, -0.05718735232949257, 0.011302915401756763, 0.14021873474121094, -1.2767263650894165, -0.09094011038541794, -0.14699099957942963, 0.9528424143791199, 0.0830117017030716, -0.8039667010307312, 0.1433023065328598, -0.022209040820598602, -0.09398464858531952, 0.004634019453078508, -0.1635303497314453, -0.1497730314731598, -0.49781617522239685, 0.08490240573883057, 0.04259614273905754, -0.02959270030260086, 0.07525592297315598, 0.06688819825649261, -1.0758204460144043, 0.00942947342991829, -0.06431636214256287, -0.14907141029834747, -0.20185738801956177, -0.06609576940536499, -0.3001091778278351, -0.018735351040959358, 0.13606788218021393, 0.8928290009498596, 0.03025919198989868, -0.1438896358013153, 0.4889245629310608, 0.09260251373052597, -0.21355779469013214, 0.034679826349020004, 0.41202402114868164, 0.013789676129817963, -0.18966294825077057, 0.14671510457992554, 0.1798175722360611, 0.10079415887594223, -1.1139099597930908, -0.06411494314670563, -0.142753005027771, -0.052021220326423645, -0.1364637166261673, -0.26305583119392395, -0.09901972115039825, 0.2788677215576172, -0.9248794317245483, -0.10823102295398712, -0.23720364272594452, 0.055908333510160446, 0.05937790125608444, 0.04738406836986542, -0.09289973974227905, 0.019068412482738495], [-0.16754746437072754, 0.026296619325876236, -0.2336100935935974, 0.08481040596961975, -0.22724482417106628, -0.09131939709186554, 0.026392657309770584, -0.056514229625463486, -0.266491174697876, -0.1612360030412674, -0.020159628242254257, -0.02959481254220009, 0.09952083230018616, 0.017208915203809738, 0.11847464740276337, -0.46133971214294434, -0.0017132542561739683, -0.2981017529964447, -0.3478108048439026, 0.13203313946723938, -0.290907621383667, -0.1838012933731079, -0.13777649402618408, -0.09878037124872208, -0.0712171420454979, 0.05462103709578514, 0.00418074568733573, 0.10060092806816101, -0.08349563926458359, -0.13299976289272308, -0.15377886593341827, -0.03218839690089226, -0.08290956169366837, 0.15118350088596344, -0.30716803669929504, -0.004613175522536039, 0.019654499366879463, -0.0009490707307122648, -0.5741121172904968, 0.02903483621776104, -0.032242629677057266, -0.19807830452919006, 0.034493230283260345, 0.023506851866841316, 0.044923655688762665, -0.03856722265481949, 0.0356132835149765, 0.0585639588534832, 0.0351434051990509, 0.06452228128910065, -0.25092488527297974, 0.07030193507671356, 0.16020254790782928, -0.01879941113293171, -0.1916484385728836, -0.6203447580337524, -0.19861175119876862, -0.010842394083738327, 0.12169679999351501, -0.1814408302307129, 0.05377953499555588, -0.13846807181835175, -0.10914796590805054, -0.21539553999900818], [-0.21094249188899994, -0.0599282905459404, -0.07976827770471573, 0.16056321561336517, 0.008389084599912167, 0.06523305922746658, -0.005830741487443447, -0.039712242782115936, -0.36647677421569824, 0.10891038924455643, -0.1070663258433342, 0.08492628484964371, -0.06593923270702362, -0.290515273809433, -0.0032434314489364624, -0.08905249089002609, 0.10165730118751526, 0.20554858446121216, 0.21023869514465332, 0.014592034742236137, -0.2473820000886917, -0.10528338700532913, -0.10839730501174927, 0.04476664960384369, 0.043344978243112564, -0.05284690111875534, -0.5496565699577332, -0.14476270973682404, -0.050569090992212296, -0.02514757215976715, -0.05208016559481621, -0.07732320576906204, 0.12839308381080627, -0.15187881886959076, -0.07491005957126617, 0.311154842376709, 0.02360580489039421, -0.18579848110675812, 0.08519519865512848, 0.15818285942077637, 0.08333511650562286, -0.056332290172576904, 0.2891380190849304, -0.11897962540388107, -0.04428233951330185, 0.04935025796294212, 0.09737087786197662, -0.16242095828056335, -0.5170915126800537, 0.005590247455984354, -0.16386573016643524, 0.047346264123916626, 0.13051629066467285, 0.2860161066055298, -0.008713092654943466, 0.15866295993328094, -0.4256698191165924, 0.07665248960256577, -0.03150281682610512, 0.10078984498977661, -0.2114110291004181, 0.04063016176223755, -0.1509886085987091, 0.12042306363582611], [0.07897304743528366, -0.03377358987927437, 0.012209281325340271, -0.19291116297245026, -0.1690596044063568, -0.04994155094027519, -0.06883738189935684, -0.07003876566886902, 0.168345645070076, 0.012409468181431293, -0.09723247587680817, -0.37129342555999756, 0.09187950193881989, 0.20411182940006256, 0.06471450626850128, -0.049281876534223557, 0.003813335904851556, -0.2434188276529312, -0.2394874393939972, 0.08468065410852432, -0.32803261280059814, -0.03514019399881363, -0.017826411873102188, 0.09183981269598007, 0.09449497610330582, -0.189536914229393, 0.14002688229084015, 0.035868819802999496, -0.16160200536251068, 0.13924677670001984, 0.07216312736272812, -0.035988885909318924, 0.007923422381281853, 0.17135077714920044, -0.4013942778110504, -0.8179064989089966, -0.18075847625732422, -0.11772097647190094, 0.1640283167362213, -0.11260584741830826, 0.12859803438186646, -0.0939287394285202, -0.3563286066055298, 0.11086301505565643, -0.11826330423355103, -0.02300988882780075, -0.04025964438915253, -0.025030994787812233, 0.1450805366039276, -0.10281770676374435, -0.138331800699234, 0.0617605596780777, -0.025845790281891823, -0.17865462601184845, 0.044358301907777786, -0.0031290771439671516, 0.15208134055137634, 0.02975483238697052, -0.36930426955223083, -0.05722809210419655, 0.060521431267261505, -0.07826238870620728, 0.037912268191576004, 0.09513511508703232], [0.0595414936542511, -0.15607662498950958, 0.058738868683576584, -0.006828147452324629, -0.125395268201828, 0.12927033007144928, -0.041549310088157654, 0.08137641102075577, 0.6137329339981079, -0.12732616066932678, -0.18801330029964447, 0.8296377658843994, 0.015343691222369671, -1.094696044921875, 0.08027298748493195, -0.3098985254764557, 0.054819799959659576, -0.2566947937011719, -0.3331920802593231, -0.04495391249656677, -1.1081315279006958, -0.00980862695723772, -0.16934211552143097, -0.2510031461715698, -0.1367502510547638, -0.27870532870292664, -0.4479635953903198, -0.13403159379959106, -0.14873474836349487, 0.08463941514492035, -0.1923091560602188, -0.032558947801589966, -0.47731271386146545, -0.18072012066841125, -1.190295934677124, 0.42280128598213196, 0.10705062747001648, -0.11508359760046005, -0.519877016544342, 0.16154175996780396, -0.0805867537856102, 0.0022134173195809126, -0.29214638471603394, -0.1575855016708374, -0.06117572635412216, 0.16810718178749084, -0.12486003339290619, 0.15768320858478546, -0.499788761138916, -0.06803826987743378, 0.029943926259875298, 0.13486240804195404, 0.16311116516590118, -0.019351541996002197, -0.1204487755894661, -0.5227562785148621, -0.674616277217865, 0.15587890148162842, -0.4001893401145935, 0.12118348479270935, -0.14067064225673676, 0.002335965633392334, -0.11552106589078903, -0.18085990846157074], [0.04933241382241249, 0.12744931876659393, -0.20278862118721008, -0.17423923313617706, -0.13296853005886078, -0.021909421309828758, 0.10880161076784134, -0.18678271770477295, -0.18303333222866058, -0.020761296153068542, 0.07446169853210449, 0.548259437084198, -0.00389472977258265, -0.26690682768821716, -0.17947354912757874, 0.028072837740182877, 0.06871234625577927, 0.16302521526813507, -0.25589486956596375, -0.1915147751569748, -0.14455285668373108, -0.05402881279587746, -0.07492350786924362, -0.4234059154987335, -0.1182517260313034, -0.022725556045770645, 0.1346743106842041, 0.14319458603858948, -0.02528490498661995, -0.18774694204330444, -0.1953638792037964, 0.11190035194158554, -0.17189976572990417, -0.08156973123550415, -0.05116873234510422, 0.0882590264081955, -0.12186750769615173, -0.17981085181236267, -0.5021010637283325, -0.08387394994497299, 0.014285883866250515, -0.07380341738462448, -0.2598051130771637, -0.026938946917653084, 0.011113855987787247, -0.04451131820678711, 0.16390933096408844, -0.09872805327177048, 0.012288786470890045, 0.15611739456653595, -0.18173788487911224, 0.13272030651569366, 0.15476875007152557, -0.4072478413581848, 0.12461716681718826, -0.01734979823231697, 0.10816903412342072, -0.16846108436584473, -0.41814568638801575, 0.09582054615020752, 0.06726028770208359, -0.12472153455018997, -0.18457715213298798, -0.1337919980287552], [-0.03261382132768631, -0.16113583743572235, -0.2548544406890869, 0.020815474912524223, 0.04802893474698067, -0.03035806305706501, -0.09022802114486694, -0.16243404150009155, -0.5155113935470581, -0.13147516548633575, -0.0601065456867218, -0.1387765109539032, -0.012632270343601704, -0.17235614359378815, 0.1065085381269455, -0.5127383470535278, 0.11945375055074692, -0.04666668549180031, 0.10943257808685303, 0.09728636592626572, -0.1538529098033905, -0.05576441064476967, -0.1584112048149109, -0.017603160813450813, 0.1255357563495636, -0.08460487425327301, -0.559064507484436, -0.17881804704666138, -0.11634816229343414, 0.11946004629135132, -0.12336515635251999, -0.23720966279506683, -0.10020224750041962, -0.08272305876016617, -0.13863150775432587, -0.05395513400435448, 0.026767918840050697, 0.1595441997051239, -0.08712860196828842, -0.06825587153434753, 0.03855988010764122, 0.13527224957942963, -0.027385948225855827, -0.0459054596722126, 0.14526554942131042, 0.016143755987286568, -0.13513782620429993, -0.033620383590459824, -0.5429083108901978, 0.09776076674461365, 0.05690577253699303, -0.032515108585357666, 0.10097214579582214, 0.12416669726371765, -0.09817063808441162, -0.480973482131958, -0.5270333290100098, -0.18854708969593048, -0.04660145938396454, 0.04586226865649223, -0.05403924733400345, -0.05070000886917114, -0.1939408779144287, -0.17382414638996124], [0.0728178545832634, -0.15369196236133575, 0.03996333107352257, -0.08444347977638245, 0.05424455180764198, -0.06554368138313293, 0.029863037168979645, -0.04035663604736328, -0.05580996721982956, 0.1363161951303482, -0.2463863343000412, -0.4057658612728119, 0.08122090995311737, -0.22301749885082245, 0.08540187776088715, 0.05005963519215584, -0.11384986340999603, 0.00376083143055439, 0.05639493465423584, 0.06166793778538704, 0.3980127274990082, 0.06152735650539398, 0.02580159343779087, 0.045060280710458755, -0.20099522173404694, -0.01502002403140068, -0.021639827638864517, -0.021861698478460312, 0.10796751827001572, -0.10583849996328354, -0.07152566313743591, -0.050836171954870224, 0.11626560240983963, 0.09362839162349701, -0.3266141414642334, 0.23770543932914734, 0.010395050048828125, -0.07659433782100677, 0.01439615711569786, 0.07583651691675186, -0.12293948233127594, 0.07247596979141235, -0.005138082895427942, 0.04628540202975273, 0.12401577085256577, -0.16740478575229645, -0.047633469104766846, 0.02535506896674633, -0.0801241546869278, -0.1699790060520172, -0.022719334810972214, -0.11797260493040085, 0.1681600958108902, -0.08867525309324265, 0.028421977534890175, 0.23411758244037628, 0.09031353890895844, -0.18319496512413025, 0.06467287242412567, -0.14049968123435974, -0.1866840422153473, 0.11417953670024872, 0.13468870520591736, 0.11733117699623108], [0.08181378990411758, 0.00184925296343863, -0.15179957449436188, -0.12799103558063507, -0.1310335248708725, -0.11476108431816101, -0.002665549283847213, -0.03721493110060692, 0.8807405233383179, -0.007611113600432873, -0.04446187615394592, 0.03742086514830589, -0.07091990113258362, -0.011810516938567162, -0.1718471199274063, -0.2678002715110779, 0.14175179600715637, -0.05657203122973442, -0.5339056849479675, -0.1515493094921112, -0.14222462475299835, -0.07371208816766739, 0.16662806272506714, -0.3122539222240448, -0.035263434052467346, -0.1262831836938858, 0.050899434834718704, 0.09541074186563492, -0.11030887067317963, -0.06218566745519638, 0.15467658638954163, -0.14676699042320251, -0.14932438731193542, 0.0013408150989562273, 0.2777397334575653, -0.014861666597425938, -0.16136188805103302, 0.17059750854969025, -0.5309699177742004, -0.01052917167544365, -0.19254720211029053, -0.08019252866506577, 0.16224634647369385, 0.08185938745737076, 0.10083919018507004, 0.08512842655181885, 0.04096315801143646, 0.16121983528137207, -0.1729315221309662, 0.09198889881372452, 0.11529447883367538, 0.06495000422000885, 0.08647004514932632, -0.6178126335144043, -0.11848203837871552, -0.5021323561668396, -0.031531721353530884, -0.15742981433868408, -0.44451838731765747, -0.1981372982263565, 0.0642024576663971, 0.00337827205657959, -0.08642222732305527, 0.09476820379495621], [-0.1642230898141861, -0.029398493468761444, 0.1433119773864746, 0.12321612238883972, -0.11010591685771942, -0.024703476577997208, 0.06771867722272873, 0.13958917558193207, 0.5961804986000061, 0.14794382452964783, -0.06989270448684692, -0.6340933442115784, 0.05217975750565529, 0.22605125606060028, -0.17018389701843262, 0.25512710213661194, 0.12544898688793182, -0.07472232729196548, -0.058452509343624115, 0.049848299473524094, 0.12343570590019226, 0.14313668012619019, -0.1875130832195282, -0.24985462427139282, 0.0035764460917562246, -0.07403437793254852, 0.3366800844669342, -0.03945690020918846, -0.05080467462539673, -0.12112478166818619, 0.07005998492240906, -0.08644559234380722, -0.0837402269244194, 0.06955018639564514, 0.12466420978307724, -0.7400501370429993, 0.09775197505950928, -0.1367468535900116, -0.19786688685417175, 0.12014596164226532, -0.06067459657788277, 0.09253297001123428, -0.3427497446537018, -0.13999883830547333, -0.13977038860321045, -0.09252535551786423, 0.19037090241909027, 0.06044219061732292, 0.2681078612804413, -0.17015106976032257, -0.060292020440101624, 0.059671178460121155, 0.036234449595212936, -0.16213475167751312, 0.14238852262496948, -0.10938665270805359, 0.24277263879776, 0.132863387465477, -0.24627795815467834, -0.08436492830514908, 0.06961940973997116, -0.055038854479789734, 0.03954358771443367, 0.12125618755817413], [0.13592535257339478, 0.04557577893137932, 0.06701597571372986, -0.1571027636528015, 0.10740340501070023, 0.03782079741358757, -0.11624367535114288, 0.08865132927894592, -0.39073285460472107, 0.12150221318006516, -0.025195633992552757, -0.5363483428955078, -0.017226064577698708, 0.06922585517168045, -0.009403660893440247, -0.15508104860782623, 0.004313942510634661, -0.12311602383852005, -0.11077482253313065, 0.045756321400403976, 0.15712685883045197, 0.022241683676838875, 0.07832315564155579, -0.14048781991004944, 0.07702764868736267, -0.1668095588684082, -0.09507256746292114, -0.03396120294928551, -0.12343160063028336, 0.10654892772436142, -0.0945175513625145, -0.17874905467033386, 0.11787581443786621, 0.03320273756980896, -0.23690232634544373, -0.38793686032295227, -0.04363493248820305, -0.12933525443077087, -0.054702214896678925, 0.018795335665345192, 0.04632296413183212, 0.11479049921035767, -0.2662048935890198, -0.2004396915435791, 0.040386103093624115, 0.09576701372861862, -0.005149543285369873, -0.15186643600463867, 0.15513284504413605, 0.06002754345536232, -0.09607881307601929, 0.0726831704378128, 0.07906767725944519, 0.18897007405757904, -0.12215809524059296, -0.023590484634041786, -0.1275824010372162, 0.042892180383205414, 0.06064857542514801, 0.16261404752731323, 0.10493945330381393, 0.14914651215076447, -0.12020649015903473, 0.10563240945339203], [-0.02889057993888855, 0.06256003677845001, -0.03396272659301758, 0.1111689954996109, -0.19030888378620148, -0.16601066291332245, -0.020602867007255554, -0.018011510372161865, 0.033937469124794006, 0.08635871112346649, 0.177682027220726, 0.18298210203647614, 0.12211869657039642, 0.14942102134227753, 0.11429138481616974, -0.12289389967918396, -0.03685244917869568, 0.14198647439479828, 0.0228777676820755, -0.18087457120418549, -0.07421781122684479, 0.06290383636951447, -0.10312248021364212, 0.17352445423603058, -0.14683878421783447, -0.18356482684612274, -0.11120565980672836, 0.13697798550128937, -0.13834986090660095, -0.1294480264186859, -0.019265100359916687, 0.18301211297512054, -0.11779416352510452, 0.053876668214797974, -0.1261919140815735, 0.07943950593471527, -0.0035772323608398438, 0.010524958372116089, 0.09767760336399078, -0.1833447962999344, -0.022515088319778442, -0.13463467359542847, 0.14822565019130707, -0.14250102639198303, 0.1629517525434494, -0.187838613986969, 0.0036975890398025513, -0.09428784251213074, -0.014367327094078064, 0.15456144511699677, 0.03424450755119324, -0.07989776134490967, 0.12535960972309113, -0.00015541911125183105, 0.036563873291015625, -0.01868438720703125, 0.05001053214073181, 0.14343459904193878, 0.014295324683189392, 0.14052681624889374, 0.007216915488243103, 0.09930942952632904, -0.14345239102840424, 0.13762058317661285], [-0.12025751918554306, -0.07781748473644257, -0.028066352009773254, -0.10815263539552689, 0.07925470173358917, -0.14958469569683075, -0.13237600028514862, 0.0280672088265419, 0.1455252766609192, 0.04491772502660751, 0.10364840924739838, -0.07508252561092377, -0.15304988622665405, 0.015190073288977146, 0.09421174228191376, -0.20972420275211334, -0.043724581599235535, -0.00620170496404171, -0.13399392366409302, -0.17185503244400024, -0.2402832806110382, -0.07809799164533615, 0.12486205250024796, -0.14571000635623932, -0.031467657536268234, 0.13307762145996094, -0.006385637912899256, -0.14942719042301178, -0.14234142005443573, -0.19205355644226074, -0.022218426689505577, 0.10400380939245224, -0.011202427558600903, -0.16708552837371826, -0.024787208065390587, 0.07186059653759003, -0.01688797026872635, 0.07085224986076355, -0.17158780992031097, -0.12128548324108124, -0.050492048263549805, -0.08442491292953491, -0.12560464441776276, 0.03155846893787384, -0.0824110358953476, -0.044752851128578186, -0.11831521987915039, 0.031011203303933144, -0.15895934402942657, 0.012255623005330563, -0.06390296667814255, 0.013274133205413818, 0.04354894906282425, -0.27226391434669495, -0.03644800931215286, -0.02852504886686802, -0.08270391076803207, -0.09964507818222046, 0.009902538731694221, -0.05449645593762398, -0.16636143624782562, -0.10000386834144592, 0.05841299146413803, 0.0049650478176772594], [-0.15156623721122742, 0.02433115243911743, -0.16866908967494965, 0.1583072692155838, -0.1952601969242096, -0.1418256312608719, 0.06590118259191513, -0.12708047032356262, -0.6722913384437561, 0.07293599843978882, 0.03585625812411308, 0.15225695073604584, -0.06989963352680206, 0.06086131930351257, 0.11712147295475006, -0.23425701260566711, 0.12162996828556061, -0.1489132046699524, -0.266340434551239, -0.08848761022090912, 0.23734265565872192, -0.16424483060836792, -0.11339753866195679, -0.16344094276428223, -0.19271479547023773, 0.10442040860652924, 0.32838040590286255, -0.11693811416625977, 0.16234402358531952, -0.1295507550239563, -0.06589958071708679, -0.05587209761142731, -0.18886549770832062, 0.09527450799942017, 0.1709437519311905, -0.14550887048244476, 0.16261141002178192, -0.059033121913671494, -0.18017259240150452, -0.2136499285697937, 0.08103501796722412, -0.10043632984161377, -0.15824098885059357, -0.12408429384231567, 0.08017769455909729, -0.04571833088994026, 0.015552729368209839, -0.020760463550686836, 0.37695008516311646, 0.021066348999738693, 0.047356102615594864, 0.15654246509075165, -0.08644843846559525, -0.07846484333276749, -0.04529721662402153, -0.09071031212806702, 0.107660673558712, 0.14178548753261566, -0.10566461086273193, -0.21391436457633972, 0.008631505072116852, -0.1294446885585785, -0.17828215658664703, -0.1849856674671173], [-0.03301195800304413, 0.02219969779253006, 0.015678683295845985, 0.17688585817813873, -0.05840073153376579, 0.010435660369694233, -0.21550147235393524, -0.11008594185113907, 0.6153741478919983, -0.18064042925834656, -0.0026337504386901855, -4.524264812469482, -0.018137313425540924, 2.490551233291626, 0.10942171514034271, 1.575457281433046e-05, -0.1258743554353714, -0.19302135705947876, 0.47062912583351135, 0.06442256271839142, 0.9226693511009216, -0.16161496937274933, -0.05371858552098274, 0.37235742807388306, 0.02984323725104332, -0.17677313089370728, 2.098862886428833, -0.20967647433280945, 0.145402193069458, -0.12632182240486145, 0.12419155985116959, -0.21166473627090454, 0.8651216626167297, 0.005661433562636375, 3.815825939178467, -4.1152262687683105, 0.18640050292015076, 0.16316500306129456, -0.46012037992477417, -0.020650818943977356, -0.18003462255001068, -0.10624608397483826, -1.1380033493041992, -0.16467483341693878, -0.06369000673294067, -0.18087482452392578, -0.08858805894851685, 0.024444403126835823, 2.0807712078094482, -0.1299290508031845, -0.14066381752490997, -0.18103750050067902, -0.053849466145038605, -0.03908061608672142, 0.009799758903682232, -0.7560458183288574, 1.4244481325149536, 0.051230255514383316, 0.33322444558143616, 0.019923340529203415, -0.05427468568086624, 0.14755447208881378, 0.11604858934879303, 0.21442058682441711], [0.09388826042413712, 0.025427062064409256, 0.008308280259370804, 0.12571540474891663, -0.06857611238956451, 0.1001155823469162, 0.057630136609077454, -0.1483628749847412, -0.03524321690201759, -0.1301811784505844, -0.017052525654435158, 0.05627088621258736, 0.09290778636932373, -0.04340552166104317, -0.11178605258464813, -0.24981994926929474, -0.04776852950453758, -0.1733526736497879, -0.20942717790603638, 0.1216309517621994, -0.09104249626398087, -0.002832808531820774, -0.04003986343741417, -0.21296699345111847, 0.03455130755901337, -0.23193752765655518, -0.2011270970106125, 0.09043619781732559, -0.1760922372341156, -0.10373251140117645, -0.045040033757686615, 0.10872700810432434, -0.2561032474040985, 0.16404879093170166, -0.06415069848299026, -0.03964908421039581, -0.1589364856481552, 0.1098531112074852, -0.0113821467384696, -0.08070868253707886, 0.12044485658407211, 0.040352825075387955, -0.1302640289068222, -0.11602915823459625, -0.1859414130449295, -0.010762186720967293, -0.02704036235809326, -0.20573335886001587, -0.09295027703046799, -0.045399587601423264, 0.12355341017246246, -0.10823558270931244, -0.11729472130537033, -0.2371901422739029, 0.10525252670049667, 0.037908829748630524, -0.05693512037396431, -0.14001516997814178, -0.19941380620002747, -0.10655000060796738, 0.11411438882350922, -0.0304315984249115, 0.05025385692715645, 0.08927331864833832], [0.0949377715587616, 0.06625428795814514, -0.05506329983472824, 0.11683634668588638, 0.031652115285396576, 0.05112837627530098, -0.13304542005062103, -0.20297788083553314, -0.16358719766139984, -0.13661938905715942, -0.2616859972476959, -0.02535242587327957, 0.0922788456082344, -0.043158985674381256, 0.0253237783908844, -0.019471265375614166, 0.012400326319038868, 0.025621216744184494, -0.023061677813529968, 0.034089598804712296, -0.01957470178604126, -0.014965889975428581, -0.12052680552005768, -0.007387241348624229, -0.1674698144197464, -0.0050583709962666035, 0.014962955377995968, 0.11151225119829178, -0.11306006461381912, -0.04801757261157036, -0.1410171240568161, -0.11501844972372055, -0.051321424543857574, -0.07874776422977448, -0.2804833948612213, -0.10775337368249893, 0.027856554836034775, 0.14834916591644287, -0.27970677614212036, -0.006622740533202887, -0.08351387083530426, 0.11319060623645782, 0.038160502910614014, -0.05161053687334061, 0.13045784831047058, -0.05293834209442139, -0.07753597944974899, 0.019239548593759537, -0.08895662426948547, 0.08019686490297318, 0.07293328642845154, -0.0633021742105484, 0.11636664718389511, -0.11458667367696762, -0.1435660868883133, -0.13308963179588318, -0.2950841784477234, 0.13343052566051483, 0.011847707442939281, 0.03358867019414902, -0.045799583196640015, -0.1171853169798851, -0.07994119822978973, 0.04781152680516243], [0.0047456249594688416, 0.03270513564348221, -0.20744338631629944, -0.1242925375699997, -0.19267673790454865, -0.143904447555542, -0.09646821767091751, -0.1556285172700882, 0.03190888091921806, -0.16480933129787445, 0.01103980466723442, -0.029989181086421013, -0.043413493782281876, -0.05632680654525757, -0.06787588447332382, -0.1969430148601532, -0.0042442986741662025, -0.03730543702840805, -0.08890337496995926, -0.1499791145324707, -0.009228351525962353, -0.02573542483150959, -0.10350508987903595, -0.08486318588256836, -0.023912882432341576, -0.24293051660060883, 0.023224037140607834, -0.14132936298847198, 0.028398804366588593, -0.12514063715934753, 0.16457681357860565, -0.22483035922050476, -0.18698304891586304, 0.1671307533979416, -0.008538934402167797, -0.14396882057189941, -0.1473364681005478, -0.1772434115409851, -0.26512986421585083, -0.01660376787185669, -0.01987154223024845, -0.013178899884223938, -0.2573598623275757, 0.0918850302696228, 0.05412279814481735, -0.07186166942119598, -0.17761389911174774, -0.006497296970337629, -0.08742567151784897, -0.10913167148828506, 0.11610807478427887, 0.02355283498764038, -0.06771712750196457, -0.14446742832660675, 0.12583909928798676, -0.16240832209587097, -0.17450709640979767, 0.11338814347982407, -0.048216886818408966, -0.15723057091236115, 0.10903745889663696, -0.16334207355976105, -0.09469647705554962, -0.22156697511672974], [0.07373522222042084, -0.09314294159412384, 0.0981222540140152, -0.0028318497352302074, -0.018554773181676865, -0.04234233871102333, 0.1605394333600998, 0.1760285496711731, -0.39039507508277893, 0.03489305078983307, -0.14199401438236237, -0.13297194242477417, -0.005948122590780258, -0.12163212150335312, 0.15483404695987701, 0.07711788266897202, -0.11726414412260056, -0.13884972035884857, -0.263561874628067, 0.10518039762973785, 0.3658711016178131, 0.03575706481933594, 0.027107730507850647, -0.02264372818171978, -0.18241606652736664, 0.060453396290540695, -0.26282966136932373, 0.002035158220678568, -0.1377672404050827, 0.038281142711639404, -0.15841439366340637, -0.16356010735034943, -0.27552688121795654, -0.12292217463254929, 0.058748118579387665, -0.11341998726129532, 0.010045483708381653, 0.13798554241657257, -0.3390769958496094, -0.046238288283348083, 0.016580425202846527, -0.11101434379816055, 0.04306621849536896, -0.046001747250556946, 0.131242573261261, 0.06374889612197876, 0.10482488572597504, 0.06304305791854858, -0.25730058550834656, -0.030197471380233765, 0.08584285527467728, -0.15969720482826233, -0.178630992770195, 0.08623751997947693, 0.003469303250312805, -0.25625303387641907, -0.3469873070716858, 0.14638839662075043, -0.0391060896217823, -0.10293176770210266, -0.06964176893234253, -0.17614813148975372, 0.104246124625206, 0.06535933166742325], [-0.15504135191440582, 0.14411787688732147, -0.08065548539161682, -0.10114835202693939, -0.004018829669803381, 0.016700534150004387, -0.14669285714626312, 0.12297286093235016, 0.10300549864768982, -0.09326429665088654, -0.191176638007164, 0.2648540139198303, -0.020533019676804543, -0.023068398237228394, 0.14533711969852448, -0.015302997082471848, 0.007012978196144104, -0.017635129392147064, 0.15580835938453674, 0.12403063476085663, 0.3152933716773987, -0.03630612790584564, -0.15166467428207397, 0.17040185630321503, 0.1047557070851326, 0.005312257446348667, 0.04794806241989136, -0.022807765752077103, 0.0765148252248764, 0.03998826816678047, -0.0807194858789444, 0.05054820328950882, -0.02553209289908409, -0.06574426591396332, -0.04157201573252678, 0.1248733252286911, -0.042028531432151794, 0.10699201375246048, 0.10958314687013626, -0.1468038111925125, 0.1056150496006012, -0.06723128259181976, -0.02503691241145134, 0.11356005072593689, -0.08179518580436707, 0.07892430573701859, 0.02375754714012146, 0.12372227758169174, 0.09939560294151306, 0.13795652985572815, -0.040091197937726974, -0.13341151177883148, -0.0640706717967987, 0.2802528142929077, 0.15540216863155365, 0.0507083423435688, -0.20741914212703705, 0.06154920160770416, 0.08375538885593414, 0.15436819195747375, -0.0037777686957269907, -0.186765655875206, -0.06993463635444641, -0.05266973748803139], [-0.1607002317905426, -0.029366355389356613, 0.12289442867040634, -0.16212332248687744, -0.07269115746021271, 0.03663579002022743, -0.17904601991176605, -0.05733802914619446, -0.0714174285531044, 0.05160180851817131, -0.0211640577763319, -0.19873039424419403, -0.004636898636817932, -0.059207405894994736, -0.0876663327217102, -0.2539028227329254, -0.10160402208566666, -0.24352149665355682, 0.15889865159988403, 0.12250857800245285, 0.020542163401842117, -0.17899712920188904, -0.0017719119787216187, 0.08492540568113327, 0.06062998250126839, 0.03884391114115715, -0.10619878023862839, -0.08376988023519516, -0.11249130219221115, 0.04109256714582443, -0.08754254132509232, 0.0051899137906730175, -0.040106192231178284, -0.05259476602077484, -0.051383424550294876, 0.17144152522087097, -0.005831468850374222, -0.048710376024246216, -0.042818956077098846, -0.004566733725368977, -0.05351831763982773, -0.1306857466697693, 0.05370844155550003, -0.002936555305495858, -0.12757062911987305, -0.07898326218128204, 0.0910637229681015, 0.01158855203539133, -0.14698174595832825, -0.08262837678194046, -0.09501691162586212, 0.18447570502758026, -0.15388436615467072, 0.20841559767723083, 0.07046045362949371, -0.01047656312584877, -0.01424717903137207, 0.037439823150634766, -0.04643659293651581, -0.015666211023926735, -0.019423438236117363, -0.09306436032056808, 0.0011802464723587036, -0.1680554449558258], [-0.0050362348556518555, 0.061358075588941574, -0.044104065746068954, -0.0856732651591301, -0.05397302657365799, 0.11808674782514572, 0.07459120452404022, -0.026687748730182648, 0.02542458102107048, -0.06755081564188004, -0.17431402206420898, 0.17189869284629822, 0.07477360963821411, 0.16518419981002808, -0.017161250114440918, 0.17930443584918976, -0.1765415370464325, 0.00016292682266794145, 0.09432646632194519, -0.0534549206495285, 0.1395067423582077, 0.0654832273721695, 0.0576874315738678, 0.09624698758125305, 0.06279950588941574, 0.03895494341850281, 0.12390819191932678, 0.1594810038805008, 0.04437841475009918, 0.13056276738643646, -0.18301120400428772, -0.02408498339354992, -0.08328062295913696, -0.11650692671537399, -0.14615100622177124, -0.02797979675233364, -0.06984073668718338, -0.06131744757294655, 0.10908607393503189, -0.004798948764801025, 0.11569081991910934, -0.12536224722862244, -0.0017503929557278752, 0.09956856071949005, 0.06229028105735779, 0.127318874001503, 0.1542077213525772, -0.1341881901025772, -0.045150015503168106, 0.0898931622505188, -0.03533487766981125, -0.12173782289028168, -0.08669500052928925, -0.16266825795173645, -0.07392720133066177, 0.031374718993902206, 0.10375639796257019, 0.004709750413894653, -0.17411473393440247, -0.08848349750041962, 0.061780188232660294, 0.13036061823368073, -0.15247467160224915, 0.059673164039850235], [0.17214027047157288, 0.09243376553058624, 0.1195610836148262, -0.11035134643316269, 0.0892217829823494, -0.14307595789432526, -0.17717182636260986, 0.02246166206896305, 0.0010469588451087475, -0.0679551288485527, 0.05646416172385216, -0.01399206556379795, 0.08391472697257996, 0.25814029574394226, 0.09643076360225677, 0.21396642923355103, -0.1330883800983429, -0.010399939492344856, 0.057317402213811874, 0.1048785001039505, -0.35283559560775757, 0.16621020436286926, 0.15439939498901367, 0.06770167499780655, -0.09706087410449982, 0.01761099323630333, 0.1790650635957718, 0.04233528673648834, 0.07768956571817398, -0.06781596690416336, -0.1939893364906311, -0.008040995337069035, 0.04623086377978325, -0.11406219005584717, 0.18621289730072021, -0.14755794405937195, -0.0650450736284256, 0.06973104178905487, -0.1355297863483429, 0.16937267780303955, 0.0009287776774726808, -0.010659976862370968, 0.05123167112469673, -0.2140316516160965, 0.08070912957191467, -0.10796801000833511, -0.03441688418388367, -0.13380922377109528, 0.16553623974323273, -0.17836439609527588, 0.014049500226974487, -0.03701229393482208, 0.1021113321185112, 0.10779979825019836, -0.12161839008331299, -0.12301572412252426, 0.11271167546510696, 0.08490265905857086, -0.05349558964371681, -0.12872731685638428, 0.10729783773422241, -0.07721205800771713, -0.08929814398288727, -0.18324223160743713], [-0.13339559733867645, -0.1687183380126953, -0.1509251594543457, -0.014249922707676888, 0.14523041248321533, 0.037808772176504135, 0.1647496074438095, 0.027578454464673996, 0.2992202341556549, -0.05559704825282097, 0.13318446278572083, -0.023334741592407227, 0.06901521235704422, 0.20347121357917786, 0.13390378654003143, 0.36725229024887085, 0.04778742790222168, -0.0938299372792244, 0.0347774475812912, 0.0865916833281517, -0.036001745611429214, 0.11964006721973419, -0.17211008071899414, 0.062479618936777115, 0.10237263888120651, -0.1893254965543747, 0.19831179082393646, 0.15763907134532928, 0.036258384585380554, -0.1773105412721634, -0.012004686519503593, 0.09773831814527512, 0.15885381400585175, 0.012687557376921177, -0.07838460803031921, -0.12495999038219452, 0.14917273819446564, -0.16110509634017944, -0.08832927793264389, -0.009649360552430153, 0.0714242085814476, 0.13606224954128265, 0.1229766234755516, 0.08763808757066727, -0.16980506479740143, -0.21314342319965363, -0.14578288793563843, 0.06415484100580215, 0.217969611287117, 0.14894679188728333, 0.06945764273405075, -0.1366213709115982, 0.06374691426753998, 0.28788435459136963, -0.016227498650550842, 0.2675071060657501, 0.15449048578739166, 0.16635388135910034, 0.16993343830108643, 0.10264153778553009, -0.02920522168278694, 0.11594299972057343, 0.025138622149825096, -0.10752050578594208], [0.07793573290109634, -0.22615444660186768, -0.2141990065574646, -0.06795705109834671, 0.05036597698926926, 0.16050215065479279, -0.17362552881240845, -0.015566208399832249, 0.3973752558231354, -0.13493239879608154, 0.03379075974225998, 0.1855677217245102, -0.02024639956653118, -0.02224576286971569, -0.15398505330085754, 0.04757330194115639, -0.026844775304198265, -0.11663104593753815, -0.011692062020301819, -0.17675308883190155, -0.3537399172782898, 0.163703054189682, -0.012128151953220367, -0.08667955547571182, -0.17154358327388763, -0.2616400122642517, -0.08770859241485596, -0.03236360847949982, 0.12551607191562653, -0.21249908208847046, -0.15659970045089722, 0.010429025627672672, 0.03938505798578262, -0.08954891562461853, 0.01189603190869093, -0.010641480796039104, -0.018489442765712738, -0.03220418095588684, 0.005920310039073229, 0.026513688266277313, -0.05332023650407791, -0.10646238178014755, 0.19044055044651031, -0.05823111906647682, 0.03530259057879448, -0.16225092113018036, 0.05246447026729584, 0.05065915361046791, -0.012824282050132751, -0.14957524836063385, -0.1337246596813202, -0.10550856590270996, 0.03490295261144638, 0.03245076537132263, -0.1190931499004364, 0.10701153427362442, 0.09340633451938629, -0.1632494479417801, -0.08153682202100754, 0.1469082534313202, 0.1334855705499649, 0.15163607895374298, -0.021999821066856384, 0.09113021939992905], [0.07253412902355194, -0.15748918056488037, -0.030988989397883415, -0.008682753890752792, -0.07218031585216522, 0.006230460479855537, -0.1353868991136551, 0.09328161925077438, 0.3068997263908386, 0.044751230627298355, 0.19964349269866943, -0.20610947906970978, -0.05315389111638069, -0.028769010677933693, 0.12124021351337433, -0.68949294090271, 0.03269760310649872, 0.13415877521038055, 0.06176022067666054, -0.02811281755566597, -0.04000049829483032, -0.002812519669532776, 0.11720401793718338, -0.19932706654071808, -0.07672644406557083, 0.08983069658279419, 0.10345588624477386, -0.05566256865859032, 0.13462600111961365, 0.07558640092611313, -0.12479234486818314, 0.15428201854228973, -0.018889274448156357, 0.13477085530757904, -0.05312122777104378, -0.3224864900112152, -0.1478174328804016, -0.009306159801781178, -0.5162786841392517, -0.023326903581619263, 0.07164148986339569, 0.05552150309085846, -0.25198161602020264, 0.14042963087558746, 0.0029688572976738214, -0.26176193356513977, 0.1863826960325241, 0.19278235733509064, 0.028954992070794106, -0.09942223131656647, -0.07531870156526566, 0.12439192831516266, 0.1446409672498703, -0.26149579882621765, 0.02742856554687023, -0.178774893283844, -0.06617379933595657, 0.09631215035915375, -0.04071406275033951, -0.13349854946136475, 0.12669600546360016, -0.08380725979804993, -0.14024581015110016, -0.060704849660396576], [0.09290099143981934, -0.13698174059391022, 0.1554715633392334, 0.11307742446660995, -0.20625616610050201, 0.10454227030277252, -0.1132189929485321, 0.10044438391923904, -0.0490664504468441, 0.02445376105606556, 0.13996484875679016, -0.02129499986767769, -0.13281145691871643, -0.12380047142505646, -0.08605685830116272, 0.14473554491996765, -0.024554111063480377, -0.031214145943522453, 0.2157261222600937, -0.09494930505752563, 0.10199147462844849, 0.03467828035354614, 0.17484824359416962, 0.08868492394685745, -0.0332900695502758, 0.17005813121795654, 0.12589184939861298, 0.07828398048877716, -0.00013206899166107178, -0.0805705264210701, 0.07109449803829193, -0.06955301761627197, 0.002119204495102167, -0.16285181045532227, 0.10524015873670578, -0.03379879891872406, 0.0762624591588974, -0.12791882455348969, -0.02311924658715725, 0.07571092247962952, -0.09905718266963959, -0.06741146743297577, -0.32306936383247375, -0.03735693544149399, -0.04854273051023483, 0.14966823160648346, 0.1716991513967514, 0.1473037749528885, 0.02385134808719158, -0.0022153297904878855, -0.12819184362888336, -0.18198180198669434, 0.03688884526491165, -0.18530015647411346, 0.09784989804029465, 0.2977747619152069, 0.04856354743242264, 0.1496114432811737, -0.027661114931106567, -0.05493926629424095, 0.1282820701599121, 0.04867139458656311, -0.16062547266483307, 0.04101226478815079], [-0.12681154906749725, -0.04752947762608528, -0.04328993335366249, 0.019733304157853127, 0.1196933463215828, 0.027846865355968475, 0.15375854074954987, 0.03394969552755356, -0.34522050619125366, -0.0922357589006424, 0.10930001735687256, 0.02817210741341114, 0.13216781616210938, 0.11223368346691132, -0.16211315989494324, -0.3589617908000946, -0.12716253101825714, -0.25306540727615356, -0.1357140988111496, 0.07851937413215637, 0.25446364283561707, -0.10517005622386932, -0.11148260533809662, -0.13120172917842865, -0.1793595552444458, 0.056876398622989655, 0.05945032462477684, -0.14918659627437592, -0.18848037719726562, 0.2545038163661957, 0.09974106401205063, 0.15485094487667084, -0.03782240301370621, -0.06172962859272957, -0.015817375853657722, -0.16022954881191254, -0.1029735803604126, 0.03136025369167328, -0.23725375533103943, 0.17078076303005219, 0.1334068328142166, 0.04237298667430878, -0.2290317416191101, 0.028959035873413086, 0.052776217460632324, 0.07669904083013535, 0.13539747893810272, 0.2728290557861328, -0.02117316424846649, 0.13512609899044037, 0.10159942507743835, -0.027650266885757446, 0.1733393371105194, -0.08969707041978836, -0.03236442804336548, -0.25201162695884705, 0.05486851558089256, 0.0650741383433342, -0.14891619980335236, -0.02291509136557579, 0.0037502942141145468, 0.14378173649311066, 0.1344468891620636, 0.15631286799907684], [0.11938874423503876, -0.0031365309841930866, -0.13033075630664825, -0.09179151058197021, 0.10820623487234116, 0.052681442350149155, 0.17164218425750732, 0.02554958313703537, 0.1269877701997757, -0.02949070744216442, -0.09993534535169601, 0.15265662968158722, -0.01310507021844387, 0.04011383652687073, 0.11336119472980499, 0.09267902374267578, 0.12943017482757568, 0.12075453251600266, -0.00108009681571275, -0.056364674121141434, 0.008526184596121311, -0.05747506022453308, 0.04576973244547844, 0.027931349352002144, 0.09736402332782745, 0.013159776106476784, 0.11727108806371689, 0.06340305507183075, -0.13987579941749573, -0.11476779729127884, -0.06535559147596359, -0.014355363324284554, 0.12167506664991379, -0.041779786348342896, -0.0866510272026062, 0.10364183038473129, -0.17440368235111237, -0.1093946322798729, -0.15862520039081573, -0.12848863005638123, 0.055526990443468094, -0.032996781170368195, 0.06873154640197754, 0.006642624270170927, -0.019039379432797432, 0.007323590572923422, -0.18081820011138916, -0.05205412581562996, 0.07232866436243057, 0.14132949709892273, -0.005856718868017197, -0.06390002369880676, 0.04411587491631508, -0.05953012406826019, 0.12831060588359833, 0.0280446819961071, 0.04517652839422226, 0.17461347579956055, 0.12850476801395416, -0.05059148743748665, 0.1494249552488327, 0.02563510835170746, -0.18155623972415924, 0.15090925991535187], [0.17158877849578857, -0.11320521682500839, 0.05706324428319931, -0.07077260315418243, -0.1273011863231659, 0.14100666344165802, -0.18400831520557404, -0.05516304075717926, 0.3848082721233368, -0.1378265619277954, -0.07994841784238815, -0.12345888465642929, -0.16772060096263885, 0.107418954372406, -0.07069912552833557, 0.22898761928081512, -0.08008226007223129, 0.12397023290395737, -0.2592830955982208, 0.08583470433950424, -0.026868212968111038, 0.18005682528018951, -0.008728519082069397, -0.16979745030403137, 0.10050421208143234, 0.14563104510307312, -0.13515600562095642, 0.18244777619838715, 0.0810704380273819, 0.06001102179288864, -0.0011035064235329628, -0.07827050983905792, -0.18277385830879211, -0.12142981588840485, 0.01847393438220024, -0.23793593049049377, 0.07023607194423676, -0.036944806575775146, -0.26725465059280396, 0.08609067648649216, 0.04640435799956322, 0.14118662476539612, -0.04005982354283333, 0.04380030184984207, -0.14377330243587494, -0.16293151676654816, 0.14764510095119476, -0.21999973058700562, -0.04683154448866844, 0.04627210274338722, 0.06584962457418442, -0.027857303619384766, -0.05580480396747589, -0.27954909205436707, -0.10164422541856766, 0.01939636468887329, -0.18640071153640747, 0.16062591969966888, -0.345015287399292, 0.15289118885993958, -0.09502287954092026, -0.07201933115720749, 0.004462122917175293, 0.15172302722930908], [-0.08042395114898682, -0.057626161724328995, -0.07890910655260086, 0.027867812663316727, 0.2737041413784027, 0.12215831130743027, 0.12175772339105606, 0.13850633800029755, -0.5866051912307739, 0.16328060626983643, -0.1868070662021637, -0.08339657634496689, 0.04262463375926018, 0.02102365531027317, -0.18616384267807007, -0.45355117321014404, 0.061925873160362244, -0.19071270525455475, 0.057624027132987976, 0.06444144994020462, 0.22492337226867676, -0.11858614534139633, 0.0996052473783493, 0.1429302841424942, 0.01611538603901863, 0.01983235776424408, -0.09289783984422684, -0.1160496324300766, -0.11940518021583557, 0.06149104982614517, 0.1838858276605606, 0.07067368179559708, 0.10027292370796204, -0.05743052065372467, -0.05272213742136955, -0.11511317640542984, -0.03794638812541962, -0.11417964845895767, -0.0692705288529396, -0.17464204132556915, -0.1331261396408081, -0.08412597328424454, 0.1956835389137268, -0.07129628211259842, -0.08081205934286118, 0.12087838351726532, 0.13808615505695343, 0.007347862236201763, 0.03918173536658287, -0.024150123819708824, 0.031798478215932846, -0.04460592567920685, 0.03268656134605408, 0.028915200382471085, -0.07765538990497589, -0.2700766324996948, -0.19671304523944855, 0.11475901305675507, 0.01197312492877245, 0.062066007405519485, -0.1647619903087616, 0.15946845710277557, 0.009148740209639072, -0.08477254956960678], [0.16204054653644562, -0.13599635660648346, -0.004523144103586674, -0.019022712484002113, -0.1342286318540573, 0.13375842571258545, 0.1507173627614975, 0.14531387388706207, -0.32465827465057373, -0.19321560859680176, 0.08758852630853653, -0.09611482173204422, -0.09194453805685043, -0.06152750179171562, -0.09925159811973572, 0.34888756275177, 0.15665335953235626, -0.2748831510543823, 0.029036594554781914, 0.16241057217121124, 0.06126416102051735, -0.11352430284023285, 0.12963838875293732, 0.19251304864883423, -0.1611565351486206, 0.08165884763002396, 0.1618136614561081, 0.10421621799468994, 0.12115387618541718, -0.006271774880588055, -0.002134433714672923, -0.05435458943247795, -0.023220237344503403, 0.04161989688873291, 0.16201114654541016, 0.10466873645782471, -0.06850675493478775, 0.1484604775905609, 0.07889583706855774, 0.15761275589466095, -0.22195817530155182, -0.0017935736104846, -0.09028003364801407, -0.08346317708492279, -0.21911075711250305, -0.12788593769073486, 0.029508858919143677, 0.015742994844913483, 0.13510318100452423, -0.06871796399354935, -0.23043563961982727, -0.16967108845710754, -0.06683045625686646, -0.1231861263513565, 0.1655370146036148, 0.26310423016548157, 0.10372588783502579, -0.12402595579624176, -0.2182953655719757, -0.025515718385577202, -0.19855384528636932, -0.09070038795471191, 0.01487718429416418, 0.06677283346652985], [-0.007267451845109463, -0.21270571649074554, -0.07543141394853592, 0.08580142259597778, -0.1505761295557022, -0.03913087770342827, -0.1171792522072792, -0.10337980836629868, -0.33952054381370544, -0.18640923500061035, 0.12660305202007294, 0.2478111982345581, -0.16307663917541504, 0.11655062437057495, -0.14055797457695007, -0.1895209103822708, -0.07534324377775192, -0.08784766495227814, 0.17289265990257263, 0.14406293630599976, -0.03483593463897705, -0.045559898018836975, -0.0016865888610482216, 0.25366097688674927, -0.13658855855464935, -0.03987281396985054, 0.26392197608947754, 0.0848391056060791, 0.10325056314468384, 0.0827416479587555, -0.15270617604255676, -0.15000119805335999, 0.08305532485246658, -0.003849996719509363, -0.2149878889322281, 0.025097467005252838, 0.12793153524398804, -0.21323107182979584, 0.15911415219306946, -0.18604712188243866, -0.17034079134464264, 0.10990473628044128, 0.26994287967681885, -0.12191059440374374, -0.15324972569942474, 0.08769921958446503, 0.13637520372867584, 0.0541379377245903, 0.1656000018119812, -0.11210307478904724, -0.10325665771961212, -0.07655564695596695, -0.008524822071194649, 0.09725212305784225, -0.11829955875873566, 0.07141564041376114, 0.21529267728328705, -0.12267044931650162, 0.17885245382785797, -0.15705209970474243, -0.07494720071554184, 0.17865867912769318, 0.12485893070697784, -0.14395801723003387], [0.08657945692539215, -0.008095962926745415, -0.07841390371322632, 0.05980036407709122, -0.2211528718471527, 0.08562686294317245, 0.054973822087049484, 0.044713765382766724, 0.22906722128391266, -0.17543619871139526, -0.11941849440336227, 0.11374292522668839, -0.12300451844930649, 0.05584277957677841, 0.03790046274662018, 0.19087766110897064, 0.09182308614253998, 0.06511068344116211, 0.22595983743667603, -0.09297899156808853, 0.1433955579996109, 0.14260528981685638, 0.16349762678146362, 0.14344970881938934, 0.08968615531921387, 0.11091414093971252, 0.2391090840101242, 0.11834561079740524, -0.12285518646240234, 0.045732639729976654, 0.00950824748724699, -0.016228720545768738, 0.1883009821176529, 0.08105428516864777, -0.12263613194227219, -0.06801265478134155, 0.053332626819610596, -0.03995160385966301, 0.16111095249652863, -0.18235711753368378, -0.014444210566580296, -0.09842124581336975, -0.16621796786785126, 0.1128569170832634, 0.11218119412660599, 0.09848036617040634, -0.048085495829582214, -0.30443882942199707, 0.14380547404289246, -0.07224087417125702, 0.07689172774553299, -0.16130279004573822, 0.011520195752382278, 0.34822705388069153, -0.023931529372930527, 0.20495787262916565, 0.047737784683704376, 0.008534103631973267, 0.023380421102046967, -0.11283428221940994, 0.05883822217583656, 0.09100224077701569, -0.1141459196805954, -0.15160176157951355], [-0.16388548910617828, -0.1144576445221901, -0.26516634225845337, -0.1204085648059845, -0.07957329601049423, -0.20344765484333038, -0.111725352704525, -0.09893304109573364, -0.3050476610660553, -0.06954573094844818, -0.19846610724925995, 0.16932743787765503, 0.13279099762439728, 0.10539320111274719, 0.06846745312213898, -0.07089561969041824, 0.14580963551998138, -0.22805707156658173, 0.013532876968383789, -0.01823054812848568, 0.1252777874469757, 0.12076698243618011, -0.045253053307533264, 0.20047062635421753, 0.11460191011428833, 0.12079646438360214, -0.1675519347190857, -0.17749866843223572, 0.014257967472076416, 0.0833657756447792, -0.17930163443088531, -0.03920302912592888, 0.16256412863731384, -0.18934907019138336, -0.13669349253177643, 0.1506401151418686, -0.11667962372303009, 0.12709645926952362, 0.119593046605587, -0.05118262395262718, -0.06278042495250702, 0.16116833686828613, 0.20187538862228394, -0.13818493485450745, -0.06833748519420624, -0.12839755415916443, 0.16275028884410858, -0.0028919843025505543, 0.03316871449351311, -0.09870684891939163, -0.0763205885887146, -0.11896328628063202, 0.1585613638162613, 0.09802986681461334, 0.0078286686912179, 0.09653618186712265, 0.16128724813461304, 0.14404486119747162, 0.12855829298496246, 0.06478163599967957, 0.08472897112369537, -0.14801575243473053, -0.18163613975048065, -0.08897418528795242], [-0.15055237710475922, 0.11217480897903442, -0.15159305930137634, -0.20636029541492462, -0.1548403650522232, 0.0023803971707820892, -0.07550171762704849, -0.08683894574642181, -0.0960717424750328, -0.11137383431196213, -0.18170608580112457, 0.16559816896915436, -0.20120137929916382, 0.05894644930958748, -0.015136152505874634, 0.19075606763362885, -0.11250185966491699, 0.23815608024597168, 0.10161401331424713, 0.09494180232286453, -0.16245508193969727, 0.14956551790237427, -0.025119714438915253, 0.19197313487529755, -0.1450025886297226, -0.08202701061964035, -0.08331819623708725, 0.010353363119065762, -0.07793563604354858, -0.15003344416618347, -0.14565813541412354, 0.13015158474445343, 0.05661507323384285, -0.09693131595849991, 0.10490814596414566, 0.15828925371170044, -0.018019497394561768, -0.07121185213327408, 0.1524783968925476, -0.0875735878944397, -0.12823233008384705, 0.12988434731960297, 0.05484957620501518, -0.21018630266189575, -0.019904328510165215, 0.04298997297883034, -0.08408785611391068, -0.08435486257076263, -0.034909866750240326, -0.12575507164001465, -0.022919151932001114, 0.16069750487804413, 0.035232823342084885, 0.09805436432361603, -0.17164824903011322, 0.13978734612464905, 0.0916345864534378, 0.17012622952461243, 0.14533540606498718, 0.022749142721295357, 0.11524436622858047, 0.09079693257808685, 0.06789959967136383, 0.019457373768091202], [-0.09041299670934677, -0.11981533467769623, 0.18787677586078644, -0.14469677209854126, 0.0057724714279174805, -0.10762673616409302, 0.05400143563747406, -0.03394918143749237, -0.029992803931236267, 0.008571818470954895, 0.0477728396654129, -0.16734802722930908, -0.1346711665391922, -0.17593452334403992, 0.16259391605854034, 0.019844025373458862, -0.056897684931755066, -0.13192057609558105, 0.07271505892276764, 0.17555756866931915, -0.02456440031528473, 0.09877203404903412, 0.07523991167545319, -0.1772228181362152, -0.1776791661977768, 0.00429178774356842, 0.040368854999542236, -0.10909423977136612, -0.14149615168571472, 0.11011825501918793, -0.1179603859782219, 0.12335772812366486, -0.09545304626226425, -0.17500819265842438, 0.10942523181438446, -0.03732559084892273, 0.11099757254123688, 0.057150185108184814, -0.12191243469715118, -0.032486915588378906, 0.04316309094429016, 0.012910351157188416, 0.029048457741737366, -0.09459497779607773, -0.12135972827672958, 0.008625045418739319, 0.1279909461736679, -0.10928139835596085, -0.17613372206687927, -0.1544593721628189, -0.08276031166315079, -0.027554765343666077, -0.03379559516906738, -0.09678337723016739, 0.18596933782100677, 0.03638939559459686, 0.008593112230300903, 0.020460769534111023, -0.04880496859550476, 0.11975957453250885, 0.16328968107700348, -0.01482340693473816, 0.09236060082912445, -0.15622110664844513], [0.0012220712378621101, 0.09914805740118027, 0.12122795730829239, -0.09997163712978363, -0.1472388356924057, -0.12055685371160507, 0.036384109407663345, 0.16803428530693054, -0.04304966330528259, 0.1535184383392334, -0.012513880617916584, -0.11935008317232132, 0.1220797747373581, -0.20276960730552673, -0.061729371547698975, -0.15299148857593536, 0.002123973099514842, 0.0726376324892044, 0.06281459331512451, -0.16832886636257172, -0.1544027030467987, -0.07834050804376602, -0.19650915265083313, 0.06451743096113205, -0.06786579638719559, 0.11149760335683823, 0.04543404281139374, 0.008908772841095924, -0.18910947442054749, -0.15595634281635284, -0.05015520751476288, 0.04371102154254913, 0.039403583854436874, -0.031072495505213737, -0.19775253534317017, 0.03288209065794945, -0.037571679800748825, 0.15351977944374084, -0.062103528529405594, 0.13310763239860535, -0.11217638850212097, 0.12326430529356003, -0.12264833599328995, 0.10867956280708313, 0.08127378672361374, -0.021174320951104164, -0.1630420982837677, 0.04304219037294388, -0.19466866552829742, 0.10094061493873596, -0.1876990795135498, 0.04190482199192047, -0.1029089018702507, -0.12495367974042892, -0.03710145503282547, 0.0035403845831751823, -0.04025227203965187, -0.13056203722953796, -0.16926325857639313, -0.15963879227638245, -0.19559873640537262, -0.04219740629196167, -0.06321968883275986, -0.16732123494148254], [0.10955584049224854, -0.010282095521688461, 0.04053265228867531, 0.06279328465461731, 0.022759001702070236, 0.033024393022060394, 0.0267811119556427, -0.13384738564491272, 0.3912310302257538, -0.09977885335683823, 0.02016366645693779, 0.5385143756866455, -0.14248481392860413, -0.44514891505241394, 0.04905828833580017, -0.1384233981370926, -0.08987549692392349, 0.12877310812473297, -0.0370044969022274, -0.14171840250492096, -0.21288606524467468, -0.1369563788175583, 0.10496438294649124, 0.04465411230921745, -0.259682834148407, 0.14326544106006622, -0.6534502506256104, -0.0010885040974244475, 0.13540489971637726, -0.1278630942106247, -0.008868108503520489, 0.11619823426008224, 0.0004099061479791999, -0.00044348835945129395, 0.08073738217353821, 0.4524238407611847, 0.05547128990292549, -0.11242816597223282, 0.19274736940860748, -0.026934320107102394, 0.07358241081237793, 0.11357472091913223, 0.2503877580165863, 0.06053507700562477, -0.04844577610492706, 0.03046422265470028, -0.03854246437549591, 0.10383134335279465, -0.3988298177719116, 0.005998400505632162, 0.04002885892987251, -0.04121065139770508, 0.035245612263679504, 0.07128956913948059, 0.15081976354122162, 0.053880948573350906, -0.4821350872516632, -0.023620054125785828, 0.0215908195823431, 0.036205485463142395, 0.08729445934295654, -0.08323494344949722, -0.15768282115459442, -0.15441107749938965], [-0.19870634377002716, 0.01639806479215622, 0.030422301962971687, -0.1649763435125351, -0.10857170820236206, -0.20232923328876495, -0.1508268117904663, -0.17763985693454742, 0.24265742301940918, 0.05424852669239044, 0.0365731306374073, 0.05438321828842163, 0.014920833520591259, -0.45454081892967224, -0.11202095448970795, -0.0404050312936306, -0.09908319264650345, -0.0827077254652977, -0.15266577899456024, 0.06246998533606529, -0.1900409609079361, 0.15929442644119263, 0.14415507018566132, -0.09910254180431366, -0.013721982017159462, 0.018115416169166565, -0.6167476177215576, 0.02643302083015442, -0.07621533423662186, -0.024284496903419495, -0.092971071600914, -0.049403116106987, -0.39108213782310486, 0.08855874091386795, 0.4948231279850006, 0.4786938428878784, -0.0411437526345253, -0.056032683700323105, 0.08410994708538055, 0.04370682314038277, -0.17352719604969025, 0.09599260985851288, -0.39333727955818176, 0.0594957172870636, 0.06611921638250351, -0.22810371220111847, -0.009151756763458252, -0.06602470576763153, -0.6659532785415649, -0.12726745009422302, -0.12357091158628464, 0.09305451810359955, 0.11061055958271027, -0.23087288439273834, -0.17107966542243958, -0.11723217368125916, -0.419236421585083, 0.049765706062316895, -0.26872673630714417, 0.07345667481422424, 0.011438446119427681, -0.17450979351997375, 0.08090975135564804, 0.24209094047546387], [0.038696516305208206, -0.12525317072868347, 0.007141393609344959, -0.18825054168701172, 0.08078128844499588, -0.14530859887599945, -0.003103946102783084, -0.10853228718042374, -0.1064041256904602, -0.06559759378433228, 0.09188287705183029, -0.2259187251329422, -0.16888928413391113, -0.16674058139324188, -0.07931235432624817, 0.02285519614815712, -0.012089837342500687, 0.04484774172306061, -0.11768534779548645, -0.11042706668376923, -0.17803393304347992, 0.15265201032161713, -0.08795852214097977, -0.07039868831634521, 0.031177939847111702, -0.13406632840633392, -0.1434246301651001, -0.0500960610806942, 0.018866021186113358, 0.14153161644935608, -0.15229471027851105, 0.08106925338506699, -0.02082926221191883, -0.01985100843012333, -1.051461935043335, -0.17610321938991547, 0.06172841414809227, -0.11374169588088989, -0.020370779559016228, 0.11413037776947021, 0.15092800557613373, -0.194835364818573, -0.2702334523200989, -0.08578987419605255, 0.11320791393518448, -0.00946166180074215, -0.17308036983013153, 0.0741029903292656, -0.24614402651786804, -0.0019664340652525425, 0.05268925800919533, 0.023034274578094482, -0.00010811275569722056, -0.022958744317293167, 0.10173401981592178, -0.2476031333208084, 0.0580863282084465, 0.015049554407596588, 0.09670402109622955, -0.1782992035150528, -0.0759694054722786, 0.03496813774108887, -0.15119057893753052, -0.17967595160007477], [0.06660791486501694, -0.05493291839957237, -0.1342308074235916, -0.0409107506275177, -0.07486026734113693, -0.180021271109581, 0.0009006987675093114, -0.08943267911672592, 0.06893475353717804, 0.04949719458818436, 0.019905630499124527, -0.19662435352802277, 0.10009561479091644, -0.11602984368801117, 0.023211628198623657, -0.2805045545101166, -0.12739256024360657, -0.14261865615844727, -0.09585901349782944, 0.16011092066764832, -0.24736936390399933, -0.2013428509235382, -0.18595004081726074, -0.24627575278282166, -0.08230894058942795, 0.07963594049215317, -0.25501731038093567, -0.11607745289802551, 0.06182463839650154, -0.1531379520893097, -0.0840771347284317, -0.03269285708665848, 0.043634869158267975, -0.07440955191850662, -0.22670425474643707, -0.20702964067459106, -0.15842507779598236, -0.10440614074468613, -0.18073751032352448, -0.21346095204353333, -0.08659657090902328, 0.020045166835188866, -0.16572660207748413, 0.013060824014246464, -0.08457062393426895, -0.2039659023284912, -0.0627504289150238, -0.12335222959518433, -0.03883274644613266, 0.017671989277005196, -0.10212109982967377, -0.0893385037779808, 0.002183597767725587, -0.1937018185853958, 0.12564748525619507, -0.022876549512147903, -0.2025957554578781, 0.06447184830904007, -0.1796666979789734, 0.1135890781879425, 0.11064407229423523, -0.06534628570079803, 0.1790214478969574, 0.07328289747238159], [-0.19570761919021606, 0.07849942892789841, -0.10036198794841766, 0.010218922048807144, -0.2386200875043869, 0.0676051452755928, 0.0435493066906929, -0.17124371230602264, 0.17115682363510132, -0.11865545809268951, 0.029017360880970955, 0.08301655203104019, -0.15629538893699646, 0.0013851356925442815, 0.08472086489200592, 0.008405045606195927, 0.13521777093410492, 0.032312680035829544, -0.19840604066848755, -0.09238587319850922, -0.16626650094985962, 0.18039213120937347, -0.1927245557308197, -0.12623248994350433, -0.049346212297677994, 0.09927979111671448, -0.1413803994655609, 0.0513862743973732, -0.11737941205501556, -0.08081836253404617, 0.05684814974665642, -0.02071952447295189, -0.13602933287620544, -0.02711625024676323, -0.09550858289003372, -0.2692996859550476, -0.12601213157176971, -0.033925652503967285, -0.012741243466734886, 0.09545909613370895, -0.1934211552143097, -0.1372201144695282, -0.06283162534236908, -0.10942269116640091, -0.06378092616796494, -0.045643098652362823, -0.13671459257602692, -0.1514434814453125, -0.11285295337438583, 0.04993726685643196, -0.1655721813440323, 0.0045194923877716064, -0.16153481602668762, -0.24139806628227234, -0.19254763424396515, -0.23994578421115875, -0.22762319445610046, -0.13017719984054565, -0.23963847756385803, -0.03552309423685074, 0.05148431658744812, -0.16532069444656372, -0.1603618562221527, -0.1032496839761734], [-0.04033598303794861, 0.10854392498731613, 0.023134250193834305, -0.10161889344453812, 0.11125385016202927, -0.12143928557634354, 0.09555258601903915, -0.1354294866323471, -1.39212167263031, -0.10934635251760483, 0.15662389993667603, 0.40976831316947937, 0.07423805445432663, 0.26477622985839844, -0.1878456324338913, 0.5415815114974976, 0.1651511788368225, 0.01098948810249567, 0.25028637051582336, 0.11422371864318848, 0.6701474189758301, 0.1084279790520668, -0.15854714810848236, 0.4788656532764435, 0.06223268061876297, 0.14300242066383362, 0.17356139421463013, -0.1299445480108261, -0.005136728286743164, 0.24580495059490204, -0.009969949722290039, 0.0016703411238268018, 0.27551332116127014, -0.10569702088832855, -0.4017534554004669, 0.21973979473114014, -0.12463880330324173, -0.11937779933214188, 0.511929988861084, -0.07597346603870392, 0.12726980447769165, 0.17613179981708527, 0.3886195123195648, 0.17807570099830627, -0.1901065558195114, 0.03749540448188782, 0.1243198961019516, -0.26083841919898987, 0.2301325649023056, -0.2054288238286972, 0.08218088001012802, 0.0038784444332122803, 0.054843392223119736, 0.3615577518939972, -0.10682608932256699, 0.560153067111969, 0.3335902690887451, 0.05816809833049774, 0.2849612236022949, -0.0825704038143158, 0.07542938739061356, 0.10220299661159515, 0.0331559032201767, 0.02959931641817093], [0.1454867422580719, -0.060166314244270325, 0.19629406929016113, -0.11528212577104568, -0.15042473375797272, -0.0438142754137516, 0.13613297045230865, 0.12969747185707092, 0.24844589829444885, -0.10248464345932007, 0.0349193699657917, -0.07446522265672684, -0.2074485719203949, 0.09586353600025177, -0.1654403954744339, 0.11123059689998627, -0.13483712077140808, 0.2138131856918335, 0.08908097445964813, -0.2007734328508377, 0.08047982305288315, 0.11801067739725113, -0.21832892298698425, 0.17963431775569916, -0.05511816218495369, 0.014579672366380692, 0.108831986784935, 0.07590018957853317, -0.056201059371232986, 0.012090032920241356, 0.08143956959247589, -0.1470739096403122, 0.36877673864364624, 0.18121545016765594, -0.4521346092224121, 0.026255466043949127, -0.1754443645477295, -0.1625329554080963, 0.17976179718971252, -0.1350855678319931, -0.03615119308233261, 0.0260024294257164, 0.08922040462493896, -0.11990093439817429, -0.03394288942217827, -0.21741551160812378, 0.15990595519542694, -0.050478916615247726, 0.0030773759353905916, 0.0063432008028030396, -0.17999860644340515, -0.18589067459106445, -0.12491397559642792, 0.2204037755727768, -0.04020422697067261, 0.3253399431705475, 0.2744922637939453, 0.1296609789133072, 0.20357321202754974, 0.16273769736289978, -0.1974390745162964, -0.18870702385902405, 0.14536957442760468, 0.06685488671064377], [-0.007588607259094715, 0.07615482062101364, 0.16635438799858093, 0.14733253419399261, -0.1778298318386078, -0.041510142385959625, -0.13249251246452332, -0.09881899505853653, 0.28213992714881897, 0.03440055251121521, -0.12212410569190979, -0.9231851100921631, -0.0624232292175293, 0.3921343684196472, -0.10551800578832626, 0.2587383985519409, -0.08156722038984299, -0.09116755425930023, 0.17566347122192383, 0.170759379863739, 0.07944831997156143, -0.14761491119861603, -0.04869154468178749, 0.3140496611595154, -0.022202929481863976, -0.25154760479927063, 0.4380754232406616, -0.08165808022022247, -0.09839046001434326, 0.049347929656505585, -0.09976868331432343, 0.02960272692143917, 0.2151089459657669, 0.15581916272640228, -0.3817282021045685, 0.24001866579055786, 0.08417946100234985, -0.0309551190584898, 0.5141774415969849, 0.03934924304485321, -0.10553734004497528, 0.07851637899875641, 0.4465251564979553, 0.032777879387140274, -0.14981403946876526, 0.013273018412292004, -0.08895502239465714, -0.12685953080654144, 0.4561474025249481, -0.08009929955005646, 0.106948122382164, -0.06253969669342041, -0.1044795960187912, 0.44235414266586304, -0.133652463555336, 0.25913292169570923, 0.32915475964546204, -0.19178274273872375, 0.40319329500198364, 0.08794651925563812, -0.17679879069328308, -0.07222696393728256, 0.059325847774744034, 0.03780997171998024], [-0.16673780977725983, 0.06987595558166504, -0.08260942995548248, 0.022550685331225395, 0.12320738285779953, -0.20653660595417023, 0.0908849835395813, 0.1701636016368866, 0.16475996375083923, 0.02555975131690502, 0.11953502893447876, 0.0917176678776741, -0.18524667620658875, 0.3163740634918213, -0.13614025712013245, 0.029690656810998917, 0.1533692330121994, -0.17969191074371338, 0.26560840010643005, -0.17214611172676086, 0.3630519211292267, -0.15904851257801056, -0.12800556421279907, 0.2507970333099365, -0.02916950359940529, 0.057520125061273575, 0.10712756216526031, -0.07594224065542221, 0.10943073779344559, 0.05550789833068848, -0.16014115512371063, -0.14470742642879486, 0.3695802390575409, -0.17574265599250793, 0.5521050691604614, 0.24175135791301727, 0.15630771219730377, -0.1925700157880783, 0.1735912263393402, 0.037874240428209305, 0.14896772801876068, 0.023485368117690086, 0.39459383487701416, 0.11199091374874115, -0.09615499526262283, 0.14545683562755585, 0.10253359377384186, 0.034508731216192245, 0.2715717852115631, -0.024729633703827858, -0.14831207692623138, -0.04716147482395172, 0.13309577107429504, 0.22087693214416504, 0.10544919222593307, 0.1417645812034607, 0.19873058795928955, 0.11908596754074097, 0.33365297317504883, 0.12788110971450806, -0.17386312782764435, -0.08297938853502274, -0.18633034825325012, 0.11358822137117386], [-0.1089412197470665, -0.04987465590238571, 0.023579029366374016, 0.08875135332345963, 0.016206840053200722, -0.04667121171951294, -0.21531620621681213, 0.15394289791584015, -0.5987095832824707, 0.024805735796689987, 0.03733617812395096, 0.24039697647094727, -0.20196931064128876, 0.17612002789974213, 0.109611377120018, 0.16500155627727509, -0.11302974820137024, -0.20841267704963684, 0.07453612238168716, -0.17166417837142944, -0.2065226137638092, -0.07444920390844345, -0.1688467413187027, 0.05452219396829605, -0.062125712633132935, -0.0009670163271948695, 0.027604812756180763, -0.03702074661850929, 0.1380753517150879, -0.18512824177742004, 0.027465874329209328, -0.10457009822130203, 0.020134316757321358, 0.06049725413322449, -0.00914659071713686, 0.39770135283470154, -0.04436729848384857, 0.07681155204772949, 0.294670045375824, -0.15037815272808075, 0.09315750002861023, 3.197047772118822e-05, 0.11172495782375336, -0.09526800364255905, -0.10435575246810913, -0.07843193411827087, -0.14980129897594452, -0.11866367608308792, 0.0815935730934143, 0.08850173652172089, 0.1419762223958969, 0.06406451761722565, 0.07632289826869965, 0.3818837106227875, 0.14200425148010254, 0.25361689925193787, 0.029530057683587074, -0.05130016431212425, 0.30913928151130676, 0.03204098343849182, -0.13840866088867188, 0.1077692061662674, 0.008925192058086395, 0.13139304518699646], [-0.0407220683991909, -0.1552847921848297, -0.13852711021900177, 0.16681818664073944, 0.19905778765678406, 0.05441993102431297, -0.1259465366601944, -0.13004083931446075, -0.23959308862686157, 0.1573324352502823, -0.07252968847751617, 0.26211491227149963, -0.12458223849534988, 0.07462111860513687, -0.038072794675827026, 0.4621541202068329, -0.11848343908786774, -0.03295121714472771, 0.17740195989608765, 0.07596556097269058, 0.26012468338012695, -0.12060516327619553, -0.1596938520669937, 0.0916563868522644, -0.161256343126297, -0.025835426524281502, 0.1122175008058548, -0.044564247131347656, -0.1101037934422493, -0.14138036966323853, 0.05862479656934738, -0.05429300665855408, 0.015383846126496792, 0.17345859110355377, 0.07730183750391006, 0.2716921865940094, -0.13230066001415253, -0.08037471771240234, 0.3779878318309784, -0.0479854941368103, 0.11055399477481842, -0.21194003522396088, 0.15239833295345306, 0.12487933784723282, 0.1310654729604721, 0.03497500345110893, 0.07654626667499542, -0.018639467656612396, -0.0027763484977185726, -0.19977425038814545, -0.13901658356189728, -0.1382053941488266, -0.1140781119465828, 0.09217720478773117, -0.008153878152370453, 0.37107574939727783, 0.10119736194610596, 0.06113896146416664, 0.06998248398303986, -0.06778495013713837, 0.18565861880779266, -0.006948903203010559, 0.08813275396823883, 0.12927387654781342], [0.0796472579240799, -0.04175456240773201, 0.182514026761055, -0.12248595058917999, -0.08318380266427994, 0.12751351296901703, -0.0427723303437233, -0.12268630415201187, 0.09374956786632538, -0.1673564463853836, 0.07323554158210754, 0.11985580623149872, 0.08702468127012253, 0.5827792286872864, -0.040304794907569885, 0.17329615354537964, -0.04071937873959541, 0.04805269092321396, 0.5074750781059265, -0.19836167991161346, 0.05505254119634628, -0.07028642296791077, 0.06521223485469818, 0.5030925273895264, -0.06286761909723282, -0.16992120444774628, 0.5392804741859436, 0.1481679379940033, -0.01644447073340416, -0.12520581483840942, -0.18472371995449066, -0.017902934923768044, 0.6433954238891602, -0.10968087613582611, 0.2371830940246582, 0.1843673586845398, 0.18362030386924744, 0.07950320839881897, 0.4734685719013214, -0.1194443628191948, -0.21173550188541412, -0.09014403074979782, 0.5079958438873291, -0.17105774581432343, -0.1750909388065338, 0.02724086493253708, -0.021230638027191162, -0.19961613416671753, 0.6625373959541321, 0.10763581842184067, -0.07039080560207367, -0.07896239310503006, -0.028102528303861618, 0.31777748465538025, -0.0034806872718036175, 0.5707165002822876, 0.6704427599906921, 0.16194558143615723, 0.5297748446464539, -0.0791323110461235, 0.05240928381681442, -0.06567102670669556, -0.18789581954479218, -0.12564313411712646], [-0.15815159678459167, -0.06240580976009369, 0.0390000119805336, -0.027577079832553864, -0.17037168145179749, -0.07790247350931168, -0.05760454386472702, -0.024724438786506653, -0.30372217297554016, -0.10052447021007538, 0.2784547805786133, 0.5694146156311035, -0.08978477120399475, 0.4807853102684021, 0.09813989698886871, -0.1567222774028778, -0.09118817746639252, -0.1401357650756836, 0.671402096748352, -0.15666086971759796, 0.44527480006217957, 0.0901387631893158, -0.0006422162987291813, 0.6173309087753296, 0.13290980458259583, -0.08476372063159943, 0.25501954555511475, 0.09836248308420181, 0.023590199649333954, -0.05199429392814636, -0.042563434690237045, -0.13338378071784973, 0.5137083530426025, -0.12674427032470703, 0.027527613565325737, 0.860633134841919, 0.042480822652578354, 0.03357728198170662, 0.5564351081848145, -0.10511323809623718, 0.024447644129395485, -0.010236288420855999, 0.8178189992904663, 0.030844608321785927, 0.000995023874565959, -0.1922796368598938, 0.11863325536251068, -0.1387845128774643, 0.36778461933135986, -0.1294703483581543, 0.14659693837165833, 0.05046537518501282, 0.17735733091831207, 0.8100751042366028, -0.029081065207719803, 0.6724420189857483, 0.2897194027900696, -0.12342358380556107, 0.726573646068573, 0.15257816016674042, -0.02642415091395378, 0.12885908782482147, -0.10425078868865967, -0.053669992834329605], [0.12186223268508911, -0.12335871160030365, -0.08096316456794739, -0.01348820049315691, -0.20413833856582642, -0.20684120059013367, -0.1364748626947403, 0.13147035241127014, -0.3619057238101959, 0.10814765840768814, -0.16953209042549133, 0.3737383782863617, -0.13993056118488312, 0.33785849809646606, 0.04517364501953125, 0.1302829384803772, -0.08134619146585464, 0.26427793502807617, 0.5193477272987366, -0.11863673478364944, 0.30600202083587646, -0.17822760343551636, -0.09276057779788971, 0.4896681308746338, 0.01392869371920824, 0.19709859788417816, 0.4933122396469116, -0.03552394360303879, 0.14452268183231354, 0.15693128108978271, -0.07543758302927017, 0.09673874825239182, 0.6633540391921997, 0.15490975975990295, 0.05439964309334755, 0.33379295468330383, -0.05606849491596222, 0.11175426840782166, 0.6365466117858887, -0.16727519035339355, -0.1574694961309433, -0.09146060049533844, 0.22540853917598724, -0.2229495346546173, 0.10337109863758087, -0.05418857932090759, -0.11039835214614868, -0.1391855776309967, 0.4996720850467682, -0.08808067440986633, -0.1494772881269455, 0.15097247064113617, 0.02442714385688305, 0.6577238440513611, -0.16298586130142212, 0.48641473054885864, 0.4951252341270447, -0.16862036287784576, 0.5243630409240723, -0.16862010955810547, -0.1043093279004097, 0.14699234068393707, 0.03723054751753807, -0.1354420930147171], [-0.1880044788122177, -0.2303658425807953, -0.10535044223070145, 0.06564173102378845, 0.14267012476921082, -0.1308489590883255, -0.15546342730522156, -0.1518900990486145, -0.6886914372444153, -0.17333278059959412, -0.1604950875043869, 0.29274141788482666, 0.1819276660680771, 0.5243314504623413, 0.01735834777355194, 0.0312392208725214, -0.03916938230395317, -0.1331624984741211, 0.4584847092628479, 0.032929059118032455, 0.4782028794288635, -0.14464272558689117, 0.07386800646781921, 0.8233504891395569, -0.13086479902267456, 0.025972677394747734, 0.5523651242256165, 0.07801163196563721, -0.01000578049570322, 0.225267231464386, -0.05957282334566116, -0.14342531561851501, 0.24306230247020721, 0.05108971893787384, -0.031554266810417175, 0.2991863787174225, -0.08165717124938965, -0.07198850065469742, 0.5232609510421753, -0.13502049446105957, -0.06780601292848587, 0.020534701645374298, 0.15915969014167786, 0.07087555527687073, -0.10590618848800659, -0.1740446388721466, 0.1459382027387619, -0.19573934376239777, 0.4036397933959961, 0.028999723494052887, -0.08052180707454681, 0.12313665449619293, 0.012590889818966389, 0.499705046415329, -0.19054701924324036, 0.4116062521934509, 0.6063306927680969, 0.12408897280693054, 0.28392860293388367, 0.08135596662759781, 0.1594955176115036, 0.058895543217659, -0.12025726586580276, -0.05656292289495468], [0.06589452177286148, 0.14242923259735107, -0.043069660663604736, 0.018183670938014984, -0.15801124274730682, 0.12433074414730072, -0.13646279275417328, -0.009707406163215637, -0.27712932229042053, 0.15473398566246033, -0.07271215319633484, 0.1939973086118698, 0.07622285187244415, 0.8141552805900574, -0.05557455122470856, 0.33942583203315735, -0.0788213387131691, 0.12976783514022827, 0.8547202944755554, -0.04103771224617958, 0.4935292899608612, 0.13900713622570038, -0.1238178238272667, 0.4688698947429657, -0.17418654263019562, -0.024046987295150757, 0.810967743396759, 0.07308866083621979, 0.17344874143600464, -0.11835053563117981, -0.046109337359666824, -0.10563638806343079, 0.5004004240036011, -0.14946012198925018, -0.3148321211338043, 0.05921314284205437, 0.07482131570577621, -0.15371201932430267, 0.6240536570549011, 0.06599761545658112, -0.028573259711265564, -0.10243673622608185, 0.47446122765541077, -0.21461129188537598, -0.028142040595412254, -0.07333514094352722, -0.1622484177350998, -0.26963096857070923, 0.5743864178657532, -0.1402076929807663, -0.20595011115074158, -0.17833644151687622, 0.006755749229341745, 0.1722261756658554, 0.021855546161532402, 0.5682635307312012, 0.7544257044792175, 0.028404075652360916, 0.45525097846984863, 0.09625062346458435, 0.06651154905557632, -0.06730680912733078, -0.143930122256279, -0.057307079434394836], [0.005346836056560278, -0.1871393471956253, 0.08422308415174484, 0.1487952470779419, -0.20346911251544952, -0.011981159448623657, -0.18682961165905, -0.1826392561197281, -0.07401495426893234, -0.1180567666888237, 0.09977766126394272, 0.464499294757843, -0.15354856848716736, 0.5401415228843689, -0.055759161710739136, 0.007699915673583746, -0.11945773661136627, 0.20684200525283813, 0.5174070000648499, -0.1340281367301941, 0.8356612920761108, 0.11301921308040619, 0.1005883663892746, 0.746265172958374, -0.1109190508723259, 0.23476040363311768, 0.30382466316223145, 0.12799376249313354, 0.09137441217899323, -0.049350980669260025, -0.10109995305538177, -0.16095979511737823, 0.5050857663154602, -0.09346962720155716, -0.9475743174552917, 0.5680457949638367, 0.039282042533159256, -0.12456651777029037, 0.5703743100166321, 0.09397237002849579, 0.04883962869644165, 0.09289781749248505, 0.3621915280818939, 0.20901882648468018, 0.04690735042095184, -0.23118022084236145, -0.08221398293972015, -0.03485971316695213, 0.3839702606201172, 0.05509798601269722, 0.11856012791395187, -0.04494945704936981, -0.07867597788572311, 0.42635804414749146, -0.023316053673624992, 0.49944937229156494, 0.3430323898792267, 0.12007047981023788, 0.45971882343292236, -0.16262510418891907, 0.2095242589712143, -0.18090321123600006, -0.19272543489933014, 0.10371565818786621], [0.10271627455949783, -0.2379249483346939, -0.15457846224308014, 0.1709325611591339, 0.2782205045223236, 0.08295224606990814, -0.16753777861595154, -0.11536803841590881, -0.3200194239616394, 0.10655734688043594, -0.1173507571220398, 0.3370409309864044, 0.10839422047138214, 0.6627923846244812, 0.13566093146800995, 0.43316909670829773, -0.13119666278362274, 0.17002159357070923, 0.5498867034912109, 0.053925249725580215, 0.21827596426010132, -0.00453560147434473, 0.11888081580400467, 0.4311316907405853, 0.106719970703125, 0.07481857389211655, 0.6785591840744019, -0.012981895357370377, 0.09365195035934448, 0.2017238438129425, 0.044235408306121826, 0.07633529603481293, 0.5578437447547913, 0.023151906207203865, -0.008229372091591358, 0.38667476177215576, 0.010155576281249523, -0.10926757007837296, 0.29024699330329895, 0.1062995195388794, -0.08243682235479355, -0.05203717574477196, 0.6445342302322388, -0.08221391588449478, -0.03240727260708809, 0.11836506426334381, -0.11725714057683945, -0.00983923114836216, 0.695216178894043, -0.15023452043533325, 0.10858312249183655, 0.12478144466876984, -0.011451647616922855, 0.41581225395202637, -0.014738389290869236, 0.09035000205039978, 0.562207818031311, -0.14501729607582092, 0.4590732753276825, -0.025313254445791245, 0.09208110719919205, -0.11706829816102982, -0.04506262391805649, -0.05212152376770973], [-0.060431964695453644, -0.04297355189919472, 0.05526312440633774, 0.09832227975130081, -0.2411520630121231, 0.09008818864822388, -0.012823272496461868, -0.09958420693874359, -0.23025338351726532, 0.10561726987361908, -0.07757996767759323, 0.20645707845687866, -0.16590891778469086, 0.5543677806854248, 0.12547744810581207, 0.44850850105285645, 0.11659953743219376, 0.0004450197739060968, 0.7337610721588135, -0.11232234537601471, 0.6716462969779968, -0.07293616235256195, -0.14470414817333221, 0.5398690700531006, -0.02643948793411255, 0.144471675157547, 0.4937875270843506, -0.07564672082662582, -0.05202410742640495, 0.0361270010471344, -0.21035024523735046, -0.1569514125585556, 0.8510230183601379, -0.028128180652856827, -0.07855664193630219, 0.3601623475551605, 0.047607727348804474, 0.026000112295150757, 0.5831220149993896, -0.1239391416311264, 0.1212383285164833, -0.17925043404102325, 0.680729329586029, -0.005877810530364513, -0.21447846293449402, -0.2000720053911209, -0.11570713669061661, -0.026674168184399605, 0.5110389590263367, -0.18465277552604675, -0.04287353530526161, 0.02239862084388733, 0.12393509596586227, 0.7166274785995483, 0.0694713443517685, 0.5505251288414001, 0.5218011736869812, -0.17746403813362122, 0.8628140687942505, -0.19970954954624176, -0.13419662415981293, -0.0020519495010375977, 0.11047913134098053, 0.01883562095463276], [0.06449934095144272, 0.0271125640720129, -0.09035297483205795, 0.08507044613361359, 0.1653423011302948, -0.08299648761749268, -0.12493926286697388, 0.08482946455478668, -0.20151561498641968, -0.06155604496598244, -0.04391305148601532, 0.086173877120018, -0.1111585795879364, 0.24459688365459442, 0.06355760991573334, 0.20109665393829346, -0.18789540231227875, 0.08715898543596268, 0.3022315502166748, 0.1254965215921402, -0.011972125619649887, -0.20016272366046906, 0.09253308176994324, 0.2433551549911499, 0.07843690365552902, -0.16113168001174927, 0.12580572068691254, 0.044987622648477554, -0.09256905317306519, -0.11223249137401581, 0.10120432078838348, 0.008760130032896996, 0.28109416365623474, 0.09500133246183395, -0.11835360527038574, 0.15738774836063385, -0.10426915436983109, -0.15875691175460815, 0.15786784887313843, 0.020773781463503838, 0.13586442172527313, -0.10943389683961868, 0.6010937690734863, 0.04988883063197136, -0.10808594524860382, 0.12086385488510132, -0.12952271103858948, -0.14145708084106445, 0.16887497901916504, -0.15221640467643738, -0.06031190976500511, 0.015650182962417603, -0.20304998755455017, 0.31042999029159546, 0.08092311769723892, 0.004627104848623276, 0.27716967463493347, 0.13343603909015656, 0.29436811804771423, 0.08371970057487488, 0.003499989164993167, 0.17010532319545746, 0.18195295333862305, 0.13302095234394073], [-0.2077517807483673, -0.0880160927772522, 0.1849157065153122, 0.012431729584932327, -0.040046077221632004, 0.11220712214708328, -0.11927186697721481, -0.17467689514160156, 0.03291218355298042, 0.05640384927392006, 0.1302451342344284, 0.1290205866098404, -0.06549139320850372, 0.40486302971839905, -0.09752046316862106, -0.029762811958789825, -0.0995335578918457, 0.2944444417953491, 0.12889151275157928, 0.061608850955963135, 0.45084792375564575, -0.17239615321159363, 0.029729144647717476, 0.26169559359550476, -0.009684046730399132, -0.10045403987169266, 0.09973526000976562, 0.0894562229514122, -0.15783607959747314, 0.05819345638155937, 0.11011555045843124, -0.1753818392753601, 0.04109632968902588, -0.0024807234294712543, 0.31050583720207214, 0.5273274183273315, -0.10680050402879715, -0.1547381728887558, 0.33006080985069275, 0.09208112955093384, -0.02058498002588749, -0.08804476261138916, 0.3698399066925049, 0.04280940070748329, 0.14952662587165833, 0.08899606019258499, -0.02013625204563141, 0.002933848649263382, 0.3576241433620453, -0.10312090814113617, 0.17581582069396973, -0.17452603578567505, -0.10726004093885422, 0.6744837760925293, -0.09103702753782272, 0.34713083505630493, 0.26979923248291016, 0.07362186163663864, 0.4856575131416321, -0.060306791216135025, 0.10685362666845322, 0.0884471982717514, 0.02153686061501503, -0.1913539618253708], [-0.18530507385730743, -0.03529919683933258, 0.07113242894411087, -0.1760105937719345, 0.08744858205318451, -0.018810514360666275, 0.07290943711996078, -0.20670902729034424, 0.02293512225151062, -0.15289348363876343, 0.09207462519407272, 0.07678620517253876, 0.09321417659521103, -0.007502288091927767, 0.03899697959423065, 0.07377281785011292, 0.06903381645679474, -0.08998225629329681, 0.3027670979499817, -0.0963328406214714, 0.4204053580760956, 0.14435461163520813, 0.045529842376708984, 0.26822635531425476, -0.05763953924179077, -0.1918746829032898, 0.2889147698879242, 0.009358957409858704, 0.07170333713293076, -0.08811377733945847, 0.0156440157443285, -0.027518214657902718, 0.31109723448753357, 0.15152597427368164, 0.15997165441513062, 0.09551612287759781, -0.170328751206398, -0.04847017303109169, 0.04481760412454605, -0.13463719189167023, -0.17523068189620972, -0.19864197075366974, 0.23528218269348145, -0.06495603919029236, -0.22703300416469574, 0.14706498384475708, -0.12286927551031113, -0.16769351065158844, 0.4165579676628113, -0.02732330933213234, -0.07234318554401398, 0.04720480740070343, 0.06208230182528496, 0.3662836253643036, 0.09718305617570877, 0.0008121586870402098, 0.15934428572654724, -0.1575375646352768, 0.3433319330215454, -0.06835464388132095, -0.1451379656791687, -0.15349796414375305, -0.04875301942229271, -0.21300938725471497], [-0.19550393521785736, -0.0511559396982193, -0.14110161364078522, -0.17949184775352478, -0.05802473425865173, 0.06231756508350372, -0.1461276113986969, 0.009366560727357864, -0.3320661783218384, -0.2145172655582428, -0.1547842174768448, 0.13407373428344727, -0.19537118077278137, 0.413565069437027, -0.11942729353904724, 0.032307032495737076, 0.11831873655319214, 0.08233149349689484, 0.5485424399375916, 0.12855413556098938, 0.13667415082454681, 0.16776326298713684, 0.02087092585861683, 0.6053177118301392, -0.021044285967946053, -0.07973606884479523, 0.49519848823547363, -0.21343958377838135, 0.13656829297542572, -0.1676759123802185, -0.1419672816991806, 0.12067189812660217, 0.606545627117157, -0.1669054478406906, -0.0070092217065393925, 0.3516882359981537, 0.041149500757455826, -0.03824193403124809, 0.3323889970779419, 0.04866885021328926, 0.020618146285414696, -0.028018828481435776, 0.4726966619491577, -0.03691623732447624, 0.004259936511516571, -0.04430457949638367, 0.15058524906635284, -0.1567424088716507, 0.40540334582328796, -0.14789849519729614, -0.14949822425842285, -0.05392943322658539, -0.19757120311260223, 0.2137000411748886, 0.05504624545574188, 0.43743082880973816, 0.4443719685077667, 0.06307949125766754, 0.5169733166694641, -0.07954592257738113, -0.12422154098749161, -0.07469742000102997, 0.06468185782432556, -0.11021331697702408], [0.12261049449443817, 0.10352633893489838, -0.09942224621772766, 0.12944264709949493, -0.13988368213176727, 0.05861920118331909, 0.14986608922481537, -0.08579263836145401, 0.042816922068595886, -0.010125204920768738, 0.12190933525562286, -0.11933139711618423, -0.1767008900642395, -0.1633891761302948, -0.1256762444972992, -0.13757912814617157, 0.18777744472026825, 0.18636317551136017, 0.05573844909667969, 0.054060712456703186, 0.1788710504770279, 0.06455402076244354, 0.09398625791072845, -0.13377852737903595, -0.02650134265422821, 0.09849901497364044, -0.07057544589042664, 0.14555145800113678, -0.14238883554935455, -0.09336798638105392, 0.18792332708835602, 0.16851340234279633, -0.0967567041516304, -0.04309538006782532, -0.1116243451833725, -0.10153617709875107, -0.14040423929691315, 0.06671594083309174, -0.023359790444374084, -0.18740734457969666, -0.11951375752687454, 0.08408470451831818, 0.08175228536128998, -0.06591778993606567, -0.08691059798002243, 0.13315536081790924, 0.18575067818164825, -0.04026442766189575, -0.08032944053411484, 0.02075408399105072, 0.1475604623556137, 0.025432497262954712, -0.042049840092659, -0.1314581036567688, -0.01400478184223175, -0.11322843283414841, 0.0988330990076065, 0.059942737221717834, 0.017955467104911804, 0.15779034793376923, -0.16345033049583435, 0.07088257372379303, -0.027809470891952515, 0.1153230220079422], [-0.12703721225261688, -0.03529558703303337, -0.06289417296648026, 0.08748099952936172, -0.02441050484776497, -0.11717306822538376, 0.018603896722197533, 0.06251438707113266, -0.031184621155261993, -0.1873767375946045, -0.016855712980031967, -0.24995926022529602, -0.1382995992898941, 0.1865675449371338, 0.13472037017345428, -0.06660482287406921, 0.1258866786956787, -0.17804023623466492, -0.025778161361813545, 0.030014678835868835, 0.07631868869066238, 0.16326937079429626, 0.18947702646255493, -0.023613780736923218, -0.17020076513290405, 0.12258905172348022, 0.08587166666984558, 0.013134939596056938, -0.12191794812679291, -0.0018247513798996806, 0.06343343108892441, -0.1211676076054573, 0.2352483868598938, -0.16635258495807648, -0.03124218061566353, -0.018385648727416992, 0.15446294844150543, 0.1869800090789795, -0.10680407285690308, -0.03864647075533867, -0.056497327983379364, -0.1914147436618805, 0.08130447566509247, 0.045977089554071426, -0.19035854935646057, -0.1789776086807251, -0.1397540271282196, -0.02736513875424862, 0.22149081528186798, 0.18317118287086487, -0.043243687599897385, -0.03221648931503296, -0.08148875087499619, 0.04161550849676132, 0.15448762476444244, -0.010152778588235378, 0.11463627964258194, -0.08107129484415054, -0.09619556367397308, 0.13881784677505493, -0.10958795994520187, -0.07488767057657242, -0.1153457835316658, -0.1179509162902832], [0.03026033379137516, -0.19192877411842346, -0.11077839881181717, -0.14909854531288147, -0.08551415801048279, 0.15696659684181213, 0.012340650893747807, 0.08546561002731323, 0.3195316791534424, 0.17783917486667633, -0.16504806280136108, -0.1389342099428177, 0.16528618335723877, -0.2831052243709564, -0.155439555644989, -0.36679691076278687, -0.1260162591934204, -0.25760024785995483, -0.260358601808548, -0.01493667159229517, -0.15726105868816376, -0.15328656136989594, 0.07341303676366806, -0.288872092962265, -0.21180303394794464, -0.21271254122257233, -0.07843366265296936, -0.1978645920753479, -0.003640685696154833, -0.24219289422035217, 0.07670076936483383, -0.04163717105984688, -0.40742751955986023, -0.08476772904396057, 0.30321887135505676, 0.08922848105430603, 0.137039452791214, 0.030896944925189018, -0.5246280431747437, 0.058693982660770416, 0.03513837978243828, 0.03153634071350098, -0.1699959635734558, -0.11481492221355438, -0.20198513567447662, -0.08289454877376556, 0.09761838614940643, -0.01951431855559349, -0.1283232867717743, 0.0658586174249649, -0.003869186621159315, -0.16364528238773346, -0.08445023745298386, -0.1656877100467682, -0.13258914649486542, -0.41004443168640137, -0.28346747159957886, -0.1563306301832199, -0.29418206214904785, 0.09268473833799362, -0.20456665754318237, -0.1597001552581787, 0.03989225625991821, 0.10996334254741669], [0.14628249406814575, -0.08148685097694397, 0.10540369153022766, -0.11992489546537399, -0.16331876814365387, -0.20475086569786072, -0.031360890716314316, -0.19633781909942627, 0.5475451350212097, -0.060003265738487244, 0.0366656668484211, -3.4669106006622314, 0.062143512070178986, 0.3858894109725952, 0.1453365832567215, 0.24160075187683105, -0.17957653105258942, 0.06674442440271378, 0.1655575931072235, 0.0721314400434494, 0.40713736414909363, 0.09460413455963135, 0.17463453114032745, 0.1678258627653122, -0.04984614625573158, -0.005834662821143866, 0.30816516280174255, 0.1279938668012619, 0.09189356863498688, -0.04208846017718315, 0.02423461154103279, 0.06940057128667831, 0.3849499523639679, -0.12232144176959991, 0.3603994846343994, -0.581597089767456, -0.04132341593503952, -0.09177480638027191, 0.012375248596072197, -0.16357064247131348, -0.058809347450733185, -0.062303174287080765, -0.9078114032745361, 0.03705667331814766, -0.06763682514429092, -0.07320784032344818, -0.020809262990951538, -0.08885207027196884, 0.21342268586158752, 0.008804980665445328, 0.023338399827480316, -0.0005056411027908325, -0.01904939115047455, 0.24096374213695526, 0.08892400562763214, 0.005312770139425993, 0.307388573884964, -0.1678258329629898, 0.23783068358898163, -0.15310221910476685, 0.04358609393239021, 0.15475811064243317, 0.14875127375125885, 0.1820695400238037], [0.048534929752349854, 0.09759456664323807, -0.05343056842684746, -0.1438000500202179, -0.03545749559998512, 0.0981370136141777, 0.0693112313747406, -0.11004123091697693, 0.6236193180084229, -0.0940772145986557, 0.006561934016644955, -3.4278860092163086, -0.0892404243350029, 0.16464580595493317, 0.16662411391735077, 0.35836759209632874, -0.06757748126983643, -0.10681574046611786, 0.08954967558383942, 0.1663869470357895, 0.5637671947479248, -0.14806526899337769, -0.015398431569337845, 0.2261233776807785, 0.20104867219924927, -0.008152980357408524, 0.25763580203056335, 0.09778229147195816, 0.06899519264698029, 0.03415563702583313, -0.018530741333961487, -0.055317074060440063, 0.3330858647823334, -0.19503146409988403, 0.25511670112609863, -0.4526732265949249, 0.048625897616147995, -0.046203818172216415, 0.04217938333749771, -0.15220113098621368, 